encog,BasicNetwork,java,3.3.0,1,1493899306020
[BASIC]
[BASIC:PARAMS]
[BASIC:NETWORK]
beginTraining=0
connectionLimit=0
contextTargetOffset=0,0,0,0
contextTargetSize=0,0,0,0
endTraining=3
hasContext=f
inputCount=217
layerCounts=3,20,217,218
layerFeedCounts=2,20,217,217
layerContextCount=0,0,0,0
layerIndex=0,3,23,240
output=-0.720420044,0.0457754615,1,-0.9999996833,-0.9958090302,-1,-0.9999999983,1,0.9998603858,1,1,1,1,-1,-1,1,-1,-0.9701099089,1,-0.999999943,1,-0.0744791505,-1,-0.9999947877,-0.9999999988,-1,-1,1,1,0.9999973646,-1,1,-1,0.9999999975,-1,1,1,-0.9540567912,0.9996126602,-0.999994991,-1,1,-1,1,1,0.9999832688,-1,-1,-0.9999664102,1,0.9999997766,1,-1,1,-0.9999187029,-0.9999999564,1,-0.9999999999,1,-1,0.9999999905,1,1,-1,1,1,-1,-0.9999999995,-0.9997790755,1,0.9999999995,-1,0.9999993168,-1,0.9988722807,-1,1,0.9999999999,1,-1,-1,1,0.9999999999,0.9842804434,0.9999987235,-0.9998414987,1,-1,1,1,0.9999486611,1,-1,1,0.9317193901,1,-1,1,-0.9999999999,-0.7216532423,0.9999994382,1,1,-0.9999999965,-1,0.9956722073,-0.9845871863,0.9716717281,-1,-1,-0.9999954569,1,0.9999999995,1,-1,1,-1,0.9999999746,-1,-1,-1,-1,-1,-1,-0.9716028411,-1,1,1,-0.9978879144,-1,0.9999999959,-0.9999999767,-0.9999999971,-0.9999908346,1,-1,-0.9999070274,1,-0.7135806283,-0.9999906316,1,-1,-0.9999567583,0.9999998989,-1,0.9972814993,-0.9989348405,-1,-0.9999999749,1,-0.9999922375,-1,-1,0.5826908478,0.9999999792,-1,-1,-1,0.9999999842,-1,-1,1,1,0.9992598923,-1,-1,-1,-0.2513746909,-1,-0.9999999999,-1,1,-1,-1,-1,1,-1,1,-1,-0.9999998953,-1,0.9999999999,1,1,0.9999995049,1,-1,-0.9999978754,1,-1,1,-1,1,1,-0.934430722,1,1,-0.9999999999,0.9999125381,-1,0.9992433075,0.9920652766,1,0.9999999861,1,-1,0.9999999933,-1,-0.2424467209,1,-1,1,-0.9999999676,0.9999819247,1,1,1,-1,0.5875700228,-1,1,0.9999999996,-1,-1,-1,-0.9999999274,-1,1,1,-1,1,-1,0.9999999979,-0.9999944114,-1,-1,-1,1,1,1,-0.9933887609,-0.9306821597,-0.8697786237,-0.8343183412,-0.8046679355,-0.7926475008,-0.7433637183,-0.6610237404,-0.5732745668,-0.3915656616,-0.1443453872,0.0774316338,0.0974656917,0.2078533507,0.3695281979,0.8064710007,0.8763898628,0.8032655514,0.8968246018,0.8715816889,0.8713813483,0.8749874787,0.8208955224,0.8675748773,0.7645998197,0.8128818992,0.8192927978,0.8232996093,0.7635981168,0.818691776,0.8305118702,0.8190924572,0.814885305,0.8597615947,0.3639186617,0.0495842933,0.2601422418,0.2603425824,0.1000701192,0.1311229089,0.1776019233,0.1707903436,0.0305519383,0.3432835821,0.5021536612,0.3967745167,0.414204147,0.4238204948,0.5263948713,0.4364419513,0.4091956326,0.258138836,0.3983772413,0.2120605029,0.2964038866,0.2399078433,0.2232795753,0.3086246619,0.3338675749,0.3112290895,0.3314634879,0.3084243213,0.3080236402,0.2593408795,0.3320645097,0.220074126,0.2675548432,0.3104277271,0.2126615246,0.3919663428,0.28718822,0.3460883502,0.7918461384,0.8821997396,0.7910447761,0.9298807974,0.8559551237,0.8824000801,0.901031754,0.8261043774,0.883401783,0.7988580587,0.7980566964,0.870579986,0.7896423921,0.8206951818,0.7770209356,0.862967044,0.7874386457,0.8060703195,0.8337173194,0.7345487328,0.7169187619,0.6309726535,0.6986877692,0.7018932185,0.5696684363,0.6562155665,0.7059000301,0.7345487328,0.6455975158,0.7215265952,0.6383852549,0.6133426826,0.6770509867,0.6011219072,0.6912751678,0.6510067114,0.571271161,0.6237603927,0.5558449364,0.6908744866,0.628368226,0.6608233998,0.6734448563,0.6744465592,0.6423920665,0.6203546028,0.686867675,0.5935089652,0.6886707403,0.6025242913,0.5616548132,0.6291695883,0.7004908344,0.7002904938,0.7133126315,0.686867675,0.7107082039,0.8555544426,0.9230692177,0.8589602324,0.9026344786,0.9006310728,0.8874085946,0.9020334569,0.8926174497,0.8785936091,0.8689772613,0.8894120004,0.8174897325,0.8779925874,0.8499449063,0.8525493339,0.9561254132,0.8639687469,0.8547530802,0.8717820295,0.8601622759,0.9210658119,0.8295101673,0.9018331163,0.8902133627,0.8699789642,0.9188620655,0.9068416308,0.9072423119,0.8846038265,0.9046378844,0.9060402685,0.927677051,0.9338876089,0.8976259641,1,0.9178603626,0.963337674,0.9417008915,0.8465391165,0.7738154863,0.4586797556,0.4807172193,0.1902233797,0.1659821697,0.105879996,0.0171291195,-0.105879996,-0.1772012421,-0.1383351698,-0.1739957928,-0.2541320244,-0.3118301112,-0.3669237704,-0.3719322849,-0.4122007413,-0.4576780527,-0.4220174296,-0.4232194731,-0.445657618,-0.4658920164,-0.4418511469,-0.4807172193,-0.5167785235,-0.5281979365,-0.4727035961,-0.4839226685,-0.5784834218,-0.7353500952,-0.859160573,-0.9903836522,-1,1,-1,-0.4274243464,-0.884948244,-0.7670417918,-0.9162071126,-0.7320106469,-0.845507553,-0.76662097,-0.9457606673,-0.8194381293,-0.812209542,-0.8906080689,-0.9638350131,-0.8502365036,0.2188037054,0.0757923748,1
outputCount=2
weightIndex=0,40,4380,51686
weights=##0
##double#51686
   0.4149223259,0.2768113742,-0.0768109544,0.3279830147,-0.4378509043,0.8537006226,-0.4821730986,0.8113734062,0.1795240104,-0.4887282042,-0.2343206922,0.6935129858,-0.3140183068,-0.3441673921,0.7282228854,-0.3108121523,-0.3478575438,-0.0840402247,0.3482564366,-0.8059333026,0.4576893557,-0.1609188458,0.9161504762,0.4639101247,-0.0569630671,0.0838357315,-0.708485709,0.5616681257,-0.4608814541,-0.6807592602,0.1162045333,-0.7222738543,-0.1228963769,-0.1496462064,-0.1808527501,-0.0519971079,-0.8392816394,1.0400789254,0.6257294582,-0.3958843774,0.908196164,0.5921686115,0.7062828954,-0.2265813757,-0.7508087574,-1.4154740228,0.7412393422,0.5546199728,0.1021885862,0.1440305139,0.3943724833,-0.2048805276,-0.6509682043,-0.4592571508,0.6239982861,-0.2122865643,-1.1580014545,1.2367378697,0.1057542578,0.5427470084,0.6028730125,-0.8702597523,-0.2566399215,0.5712987673,-0.2343687603,-0.33704184,0.3568262281,0.4854626258,0.0851716516,0.1705237455,0.1989659989,-1.0152038885,-0.8399651374,0.5871241197,-0.2743802609,0.2647821779,0.0964801325,0.2994995451,0.6777702515,-0.2350829751,-0.4377152825,-0.763016287,0.2934555966,-0.8655680237,0.5033191821,-0.2728285708,0.4503378739,-0.409711624,-0.3768592283,-0.5609648031,0.4541016969,0.6763325064,-0.2621692406,-0.5273003088,-1.0035049919,0.1084771168,0.288025821,-0.8966241271,-0.6030172415,-0.3246703574,-0.5913298022,0.6775240492,0.8293560994,-1.1921515832,0.2685230935,0.9236798715,-0.4381967701,-0.7516151971,-0.1692531707,-0.6595207163,-0.9663669794,-0.9858474799,0.9845982135,0.3958180617,-0.341905728,-1.2870185135,0.0680018475,-0.8359393288,-0.7567112038,0.6365833554,0.5995920652,0.1873471985,-0.0017744883,0.4929956047,-0.0112910597,-0.5182697117,-1.0308312927,-0.0818984989,-0.2157963886,-0.9159883457,-0.5609045674,-0.0106293985,0.5061567877,0.5105256502,-0.9829156627,0.5756402604,-0.9114814208,-0.1113320277,0.894923014,0.1496363381,-0.3691251604,0.2726434198,-0.9620737911,0.8288388965,-0.9138996556,-0.4106832783,1.1446507535,0.8104268885,0.5543496077,1.2939974727,1.0176070373,0.4923128128,-0.7123357801,-0.6935917392,-0.8827806649,0.0505694468,0.4762037986,-0.2918098911,-0.3301522074,-0.7587375786,0.946884819,0.4137686523,-0.4717448411,-0.7705383644,0.5980037886,-0.3039643038,0.4312643983,-0.2800780364,0.6497928576,0.4463767222,0.1411387756,-0.6654352913,0.0580886282,-0.587785703,0.888557857,0.8112898208,0.1615350859,0.5184423034,0.218528146,0.1345691568,0.653395048,0.3794293522,0.4453922135,0.909050614,0.6667528256,0.1900239754,-0.195784253,-0.5613048967,-0.4832218819,0.1005258167,-0.1185735887,0.1510597521,-0.5661789825,-0.8179283214,0.3138019226,-0.8650328028,-0.0128421368,-0.8365906072,0.7462455061,0.9366524598,-0.2619956278,0.5480387795,-0.1203588322,-0.3683041105,0.2453576714,0.1754138838,0.3033071112,-0.8300449207,-0.9158440576,0.8061106426,-1.0567098239,0.3890667711,0.3503310851,0.1019117514,-0.5255095677,1.1430021977,-0.4756187458,-0.0654458849,-0.2126591722,-0.2585948786,-0.248681993,-0.8177142515,-0.0013063292,0.9165181519,-0.6570714501,-0.178092543,0.2043358606,-0.2843165872,0.0870448051,0.7410589102,-0.2326880714,0.9001350101,0.2938686018,-0.5496704893,0.7116196696,-0.4741841746,0.7069029723,0.9048991979,-0.8385750864,-0.558558229,0.7123989026,0.0145269803,-0.2815363034,0.5901319749,0.1144293793,-0.4384998303,1.1013193248,0.4462871166,0.664400153,-0.7090495335,-0.73663912,0.2326164609,-0.7922381264,-0.4732129148,-0.489144731,-0.5488507981,0.3779485322,0.4541512844,-0.3225726221,0.0116694803,-0.5526531989,0.963576449,-1.1514212885,0.1213066647,0.2740425841,0.6486550638,-0.4819164406,0.6923723726,0.2628699696,0.8085289862,-0.6068137682,1.1178145232,-0.3875245233,-0.0852223772,0.153972921,-0.6935857189,-0.3045460389,-0.6848159136,0.3174487208,-0.7487889234,0.3290034088,0.5021814927,-0.5487182487,0.4931350822,-0.6410732874,0.0797322681,-1.1775173383,0.9450316751,-0.3994677787,0.5711033834,0.1364357813,-0.0627540303,0.6304840163,-0.4642625458,-0.3042453273,-0.9123276108,-0.750435653,0.0104475832,0.7371140911,0.8824104692,-0.4394537023,-0.4424506722,-0.5436451203,-0.2544145943,-0.8961318463,-1.0370623638,-1.5619948226,-0.8441038353,-0.7274196846,0.9228559185,0.5317552695,-0.8056803101,-0.0406766031,-0.5654580634,-0.6547085721,0.4059243086,-0.9087609223,-0.8874871506,0.4380732632,0.4786764094,0.1410728558,-1.1280071443,0.9439656039,0.7888610841,-0.313421396,0.4221654172,-0.6623082899,-0.259424374,-0.4035250673,0.5094677698,0.8667309487,0.7823772372,-0.2742011177,0.468562956,-0.3010746263,-0.7332884538,-0.7967450479,0.7364702814,0.2376789206,0.4416896887,-0.8032614736,-1.0323962573,1.0433158619,0.687015092,0.9752941987,-0.6348177609,-0.6490818534,-0.2454675651,-0.2051179708,-0.2491222831,-1.1434765316,0.6240100058,0.39510104,0.0678136881,0.9127882905,0.9797920198,0.7226032473,-0.8710859744,0.1741124254,-0.8655733864,-0.3989667225,1.2127518648,0.1355044389,-0.4810060686,-1.0512667847,0.3274452064,0.6298935957,0.3380444538,-0.4944139684,-0.8158619904,-0.9196585865,0.6773604933,0.6738057072,-0.1669845035,1.0976005528,0.3084646396,0.4078175652,0.1195720379,0.1167712393,-0.6004506742,-0.1215543005,-0.1901360054,-0.3479849879,-0.5888107034,-0.7005629646,-0.9534552487,-0.6960472566,-0.4846925312,0.5207320958,-0.0069119206,-0.0538098209,-0.8753341067,0.4790717924,0.0008517828,0.1668932847,-1.0577367072,-0.5814073567,0.1440602175,0.884761352,-0.8191235175,0.5301615415,1.1352758507,-1.2334619805,0.1241063825,0.748642874,1.1356750556,0.3112815068,-0.0787747272,-0.2417872457,-0.8198231341,0.2571479437,1.2337972257,0.4665939485,-1.1225093248,-0.9497382465,0.4009642218,0.1906901489,0.2183009416,-0.575930448,0.9159703312,-0.8972817549,1.1210194278,-0.82465338,0.0721014455,-0.040739167,-0.2631329341,-0.8380825029,0.5780978893,0.3606760504,-0.7265784323,0.1560105,0.6629919842,0.3090651624,-0.2002487534,-0.4538064257,-0.5131940985,0.5854626477,-0.5536534951,0.4847711251,0.4726422906,-0.911079667,-0.8904205158,0.407447239,-0.3820280409,-0.2066331968,-0.2778770569,-1.0796505239,0.9084318995,-0.240208467,0.3341647791,-0.9452612819,-0.719930871,-0.0396595929,1.2711501379,-0.6619402691,0.0095804635,0.2145889025,0.2214049822,-0.9602684476,0.8077492802,-0.4363381082,-0.5349187104,0.0287915398,0.2927273018,-0.7396430169,0.9586408657,-0.3096304437,0.0904881694,0.4075379621,0.4636230925,-0.1640937182,1.0017482687,-0.058968072,0.4043554986,0.0222894677,0.3188195468,0.7741535226,-0.907591385,-0.675815773,0.2707606555,-0.838868047,-0.649530466,-0.4345062003,-0.3191699159,0.4581112961,0.4958991611,-1.3784507802,0.301018289,-0.4487952641,-0.0604610294,-0.0517568929,0.4572136081,-0.612897035,-0.090486549,0.0101244279,-0.6000846697,0.3064111809,-0.4236505081,0.6422545682,-1.0192802565,0.7653390651,-1.6540980092,-0.301306834,-0.0413559836,-0.7346751971,0.0849910489,0.7362802364,-0.6844575986,-0.095320468,-0.1752680909,0.4248346049,-0.7671963363,0.4274477402,-0.7534650658,-0.1778319694,-0.5410550158,-0.7042236797,0.371463031,-0.6640763187,2.5851164929,-0.8782196632,-0.1943351772,0.2865144369,-0.9777905827,-0.3041741239,0.4518566987,-0.7584328759,-0.0739622905,-0.5138811623,0.8126341536,-0.4795934296,0.3768701202,-0.7496084218,-0.8153900655,1.0391926704,0.3221575187,-1.1129921102,0.4955339582,0.1655843345,-0.0810862056,1.0086235131,-0.8785539716,-0.3957111105,0.0289837838,-0.0272233089,-0.3535836106,0.8646549651,0.2540568243,-0.1033106027,0.318987626,-0.7653025273,0.0100417157,0.9994602768,-0.1721152588,0.2389296786,0.6259052305,-0.0191744072,-0.5243842593,0.5686128604,-0.0069408363,-1.0069857844,0.4104630592,-0.90430714,0.1664638737,-0.5954966558,0.8059164717,0.2587983014,-0.7397169145,0.6368079341,0.6846383752,-0.0903722469,0.1923968711,0.2884490113,-0.7393404854,0.2943273283,0.8347515871,-0.0544616324,-1.7950706588,0.0855488952,0.9821814314,0.3306839129,0.3442900734,-0.6403713658,-0.1897879102,1.1324814402,-0.1515389365,0.419110732,-0.9833694069,0.6445689497,1.1426987059,-0.1659725921,0.0473628295,0.3852024268,-0.5151014228,0.623232679,-0.2068561206,0.2863557442,-0.8615745275,-0.5616045699,0.4069280631,-0.5731679884,-0.5469638629,0.7095359611,1.0127996192,0.9192904602,0.5163672082,-0.1453082047,0.3642641793,-0.5417270237,-0.8933620536,-0.3894595257,-0.2453820264,-0.6282551308,-0.2447081151,0.4116914937,0.6869295857,-0.5154185488,-0.8647939839,0.0191968853,0.1123954815,0.0446756677,-1.3849848411,-0.7788493092,0.8171942139,-0.1865513651,-0.8935995569,-0.0073847012,-0.1332798359,0.6383029029,0.8996877451,-0.3309690108,0.4164551159,-0.1807248335,-0.2681174385,-0.7950379147,-0.4535364738,-0.7994752312,-0.2840737208,0.6006748186,0.0566955206,-0.5092719645,-0.6084101109,0.4554381783,0.3992086343,-0.889748716,-0.1328133645,0.5858131003,-0.5955579186,-0.5436872563,-0.6483066423,0.1677475243,-0.7362876345,-0.4474228613,0.6762683135,-0.4958554016,-0.2112316935,-0.0772214807,-0.8471355802,0.6159286823,-1.148058067,0.8360026262,0.5353931269,-0.8539634462,-1.1818659119,0.9324847647,0.4650529074,-0.4200990244,0.2550582215,0.1877990217,-1.0280395125,0.8836590181,-0.742943604,0.651536661,-0.843938609,-0.7358827793,0.260627062,0.7875307818,1.0114325623,0.380253984,-0.6980887656,-0.3075769429,-0.3108750497,0.5186451466,-0.0589039843,-0.3989313879,0.628498784,0.7903046939,-0.0100994403,-0.0767307447,-1.0722947714,-0.0255219824,-0.3656113717,0.396161551,0.5118884448,-1.0039042497,-0.2894904369,0.2339833144,0.5912739781,0.8595708528,1.0438739907,0.2382422886,0.5390796326,0.6040567654,0.4470431995,-0.5906155098,0.384127874,0.7152967867,0.4665974393,-0.567333368,0.0177089172,0.2727635471,-0.4840824464,-0.5542573309,0.6354551373,0.8712556976,0.7439076477,-0.4468692022,0.3477716157,-0.0191295981,0.3981030982,1.0829739674,-0.6858107775,-0.5826853702,0.3332515724,0.2814714595,0.8596387307,-1.0282598233,0.9419233471,0.3107826795,0.8800229511,-0.697794483,0.3647187884,-0.0216504747,0.9491679007,-0.1321378569,0.8148503025,-0.3860498837,-0.3708065241,0.2607107273,-0.7141722735,-0.2510868321,-0.4372020896,-0.4058893572,-0.0458442177,0.7895770921,0.6200459257,0.7211816466,-0.3499899728,-1.0073144351,-0.9644164726,0.6291548688,-0.0702493179,-0.9432924058,-1.2886552555,0.7731006202,0.2342706686,0.3559755813,-0.5627076788,0.2244145687,-0.2212099409,0.8771752425,-0.624407442,-1.0502958702,-0.5161034806,0.9353652794,-0.5542519743,0.5269174341,-1.2579016794,0.0414637529,0.0948589881,0.5009462749,-0.8289190595,1.3245908339,0.2296096132,-0.5587403133,-0.3815258348,-0.3534090834,0.9776381496,-0.7020588878,-0.6873501603,-0.18360849,-0.0058159613,0.2387549283,0.0256332534,0.8667996129,0.5641120916,0.8083888542,-0.1196560225,0.1336849624,-0.9854427502,-0.4968455972,-0.4999872487,0.4445025499,0.4533308166,-0.1777029403,-0.040245463,-0.2513140601,-0.6136193329,0.5818606639,-0.085044526,-0.9129706424,-1.0180257883,0.0428597205,-0.6854859757,1.6717449288,-0.1698723063,0.3187840754,-0.2819294292,-0.484258612,0.4907134126,-0.6029108654,-0.9735594117,1.3775963157,-0.8877423657,-0.0821503297,0.874648359,0.7095678771,0.4535282709,-0.823043595,0.6360801035,0.7573605454,1.2108770314,0.0325441781,0.9237180098,-0.8273537207,-0.2723162507,0.5068811208,-1.1646569203,0.9227268985,-0.5698901043,-0.971180779,-0.831194465,-0.9627421626,0.7608901564,-0.0353280298,0.292027616,-0.8670714779,-0.2842504378,1.2061496825,0.8606043775,-0.7236413684,0.051520329,-0.7865140383,0.1107707268,0.8605058091,-0.303058333,-0.2474209268,-0.6386557124,1.2203580185,-0.9311272374,-1.1248568309,0.2456571494,0.350386151,-0.654810245,0.1337365187,0.941675986,-0.7579310335,0.7635359912,0.0315065393,-0.0790057679,0.120436168,-0.6662482372,-0.3664383877,0.2906201082,-0.9785005106,0.707968064,0.7600537171,0.6079198208,0.3741059999,0.5972534286,-0.7555027324,0.5372672274,0.1462543507,0.6345704371,0.5976512593,-0.6205656837,0.3248072162,0.3161120864,-0.1830394503,0.073614851,0.3464426811,0.4791545555,0.4675942665,-0.9711275772,0.5246693743,0.1068562412,0.1717369059,-0.1572402791,-0.5402593386,-0.355287367,-1.4554595277,-0.7777794197,-0.1578877182,0.3793875452,0.3842447279,-0.6539467249,-0.2405003812,0.1344165921,0.9677484476,1.0400620258,0.839881818,-0.186077945,-0.9814417976,0.6852413798,0.5040895613,0.7927101245,-0.7204171777,-0.8488626172,-0.6815112346,0.4291166419,-0.7999021537,-0.4321819448,1.0160448118,0.8108311149,-0.7717006742,-0.9429163772,0.1690906609,0.1871011583,0.4659139192,-1.1907478632,0.4789063577,0.6049717977,0.5345619403,0.5665468645,0.5217036864,-0.0290186902,0.7284324112,-0.3566768441,0.6703502011,0.2825667966,0.5976086552,-0.4448071004,-0.0955730853,1.2005305075,0.3933648462,-0.896166092,-0.4367846201,-0.5111920808,0.4346918345,0.3485535276,-0.4440748499,0.2797761835,0.6640306213,0.7987124097,0.4935537083,-0.0362809764,-0.5899654849,1.6605566573,-0.6978284807,-0.3928455442,0.7080731397,0.9003187814,-0.2996726562,0.7764101567,-0.8161505616,-0.4141620252,0.2774963575,-0.665651779,0.9048497649,0.2134152571,-0.3065537271,1.1028499283,-0.4436938594,0.7775106371,0.0864226913,0.0522271034,0.3212293158,0.4876351791,-0.8122929032,-0.0328115191,0.2230185487,0.7011304126,-0.5057950938,-0.6642013379,-0.9514404515,-0.8003386425,-0.1799082998,-0.2463889231,-0.7111206684,-0.6923623864,-0.164153533,0.8029188569,-0.7603647495,0.1656173641,0.4561555721,0.4310132927,0.4987156444,0.6154078341,-0.2515321712,-0.7129195897,-0.9205342588,-1.0638137347,0.7171441261,-0.8563267059,-0.4639812376,-0.319568039,-0.2147650294,0.0607160562,-0.396866924,-1.1481422182,-0.6962344706,-1.4425686079,1.1099776998,-0.0196315786,-0.5010908686,0.5123272744,0.1594052372,-1.0080417845,0.7956122535,-0.2735077577,0.681863292,0.538483101,-0.0168798386,-0.6546726282,-0.6056597991,-0.5123205712,-1.1123379299,-0.7596634943,0.0803885011,0.7503925079,0.7349133553,-0.5320214335,0.5947128091,0.1869430163,0.4993590895,-0.4398377236,-0.5109780339,0.66898633,0.5125030049,-0.3429812646,0.12355772,0.184479931,0.6262494485,-0.6255504093,0.3761408433,-0.4984162635,0.1177922719,-0.9063169114,0.2112419478,0.3817329624,-0.6162018506,0.2924050769,0.7714852657,0.3826470757,0.2437695474,-1.1510781337,0.8822559887,-0.3058329384,0.6392712248,-0.2800293649,-0.1996964938,-0.0894786793,-0.6238920709,-0.0555124123,-0.8379159043,-0.516855776,0.1544952452,-0.7464527258,-0.0626726584,0.6068637271,0.5916979699,0.5911738812,0.5973270741,0.4071580959,-0.8361055887,-0.2496023905,-0.1982296404,0.4077151734,-0.4817438689,-0.4416703406,0.2840280888,-0.8506961992,-0.811507738,-0.209905415,-0.7395432822,0.1694051591,-1.0086675582,-0.6932722559,-0.48947866,-0.0082298534,0.1564496165,0.2423343244,-0.7577047115,0.3403177603,-0.8310699398,0.4077910746,0.3680326151,-0.1554947908,0.5872125471,-0.2290940828,0.8560077827,0.4860768802,0.3283166555,-0.6829070311,1.1081937796,0.5527956215,-0.2144059742,-0.5262315339,1.2379542665,0.5515916848,0.3926429096,0.8273291023,0.7281774532,-0.11586226,-0.1148747986,0.5050845243,0.7012905055,0.498236485,0.1131620161,-0.6589658509,-0.1771589645,-0.9231115708,0.6547246902,0.1973708913,-0.9272396417,0.5662762339,0.651318197,-0.8895537514,0.1040769797,0.6538509674,0.288355178,0.4004284532,-0.4206339796,0.9433559154,0.5669835577,1.0596923349,0.5777759332,0.2736307618,-0.0138280089,0.150879115,-0.4294746933,0.0813224259,-0.1689318222,0.9544848164,-1.2147658558,0.1236874158,-0.2717741415,0.9629175787,-0.7224316096,0.7226002112,-0.292660769,-0.4529510103,1.0430046924,-0.5741191811,-0.2698833044,0.3538471206,-0.1380217388,0.1578920129,-0.7104376881,0.0240344385,-0.0631698977,-0.9098747596,0.6251774784,-0.9779254026,-0.6333195368,-0.1126579584,0.1601258751,-0.1154779099,0.9669995302,-0.4356917996,-0.1365685413,0.7638670786,-0.3190183494,-0.701519918,0.042928789,0.1295882124,0.4009893642,-0.766737717,1.0245395191,1.8188990094,-0.227096066,-0.3597810004,0.8961573687,-0.7382797817,-0.0845461721,-0.3260830992,0.0529456602,-0.2456205373,0.9984405928,1.2026457675,0.3851020873,0.6705516544,0.6146380679,0.1506634976,-0.1031360665,0.5108936694,-0.1029075194,1.1462967421,0.7196817352,-0.8098440541,-0.2783134164,-0.2502491113,1.3516374657,0.4036006931,-0.3339987829,-0.0053913009,-0.9743536239,-0.7096970223,0.1717208229,-0.3929627597,-0.0309156979,0.8513063308,-0.460364876,0.5541872595,0.6138543507,-0.5613478518,0.585363987,1.2653996994,0.0695802909,-0.5349908643,-0.0631541606,-0.187581441,0.0680476445,0.7805735432,0.4945037112,0.8999225698,0.8446924047,0.7959533971,0.6197370132,-0.9052373809,-0.4345821721,0.9527368875,-0.7349870353,0.2830898123,-0.1399264644,0.7329557389,0.2046567395,0.5736964899,0.9523069737,0.0175563201,-0.9979522735,0.088627033,1.1308004951,-0.6159669609,0.5337714244,-0.2492294117,0.2480534058,-0.2272015553,-0.2692858045,0.4964865372,0.7403328122,0.3962466744,-0.0506724968,0.1779673325,-0.3677997681,-0.4375775499,-0.2348970054,-0.7563220139,0.2322836883,-0.7389518099,0.6542924658,0.7550743188,0.4949683344,0.1713610393,0.0782001048,-0.3652696299,0.4321541072,0.8510576555,-0.6137171238,-0.1997699855,0.5682916714,-0.0195299543,0.7722669356,0.8986637985,-0.2497545438,0.0625459729,0.2301180372,-0.9508837554,-0.0312085301,0.2485742422,0.9514126881,-0.8220221774,-0.1221865072,0.4420127543,0.0546085678,0.8208115912,-0.3516599156,0.7811932186,0.6324167091,0.7121670174,-0.583539949,-0.0551671803,-0.0543724318,0.3785863865,-0.8972979634,0.0090170273,0.8150005,0.3844273853,0.1220275961,0.4261425567,0.5508570917,0.5829353416,-0.2322617143,0.5044158048,0.9085175382,-0.1428455496,0.5147570872,-0.6133404876,0.9101885993,0.8792575529,-0.6462082844,-0.558285004,0.8534653393,-0.0347588689,0.6183699807,-0.6782729568,0.2607463284,0.6478080908,0.2782453918,0.2685056652,-1.7619107576,-0.6802906087,0.4397040375,-0.7797765511,0.333725963,0.5203305642,-0.6890888475,-0.5576831487,0.6222669285,0.7811564057,-0.7385480954,-0.4469769471,0.6705379116,-0.1278366774,0.5850341896,-0.7508120796,-0.174236195,-0.1365902329,1.0511624092,0.4348071051,1.1621051588,0.4503373397,0.8697312958,0.5245774321,0.9283927742,-0.4193951488,-0.8827457987,0.5258525612,-0.0781471698,-0.5637500414,-0.2035014228,0.8588091844,-0.4420360092,-0.2990820682,-0.2398872176,-0.8155258174,0.7992272706,-0.814261161,0.3458507275,-0.9712851665,0.0970736527,-0.3188115062,0.8267048387,-0.9312097173,-0.6957979383,0.5375549164,-0.5117877668,-0.6151788129,-0.3429753031,-0.0186015203,1.0096853152,-0.687920815,-0.162730379,0.9550025976,0.2948052652,0.0890184674,-0.4907259747,0.6337318365,0.251266183,0.2869248947,-0.0568006451,-0.2359505541,0.6123133085,0.1818935112,0.523888169,-0.577860587,-0.6293447266,0.3454073871,-1.0987121924,-0.104181848,-0.7365848612,-0.7965553485,-0.5960238082,0.7973701856,0.6543159685,0.0930520612,-0.5247145644,0.4129368196,-0.3192902186,0.9911452365,-0.5162280167,-0.6596496878,1.0894951087,0.9102336665,-0.2555250649,0.5148280088,0.139921725,-0.3699143069,-0.1973408585,-0.2667554043,0.3828209218,-0.0087926022,-0.4549407966,-0.3079337173,-0.2945482647,0.3198300108,0.1000704206,0.2511026307,-0.7109697774,-0.0266777621,0.6878713981,-0.0434686026,-0.8654007049,0.3658657951,0.2255974277,-0.6252854058,0.4564660029,0.0439848862,0.0602371334,0.2392316642,1.1966182363,-0.5056118562,0.0789027608,-0.6004349336,0.3740188044,-0.4870907016,0.7116926682,0.060836001,-0.3807860195,0.2107344381,-0.7046880627,0.5992030416,0.9965563068,-0.208871759,0.6733011839,-0.2331485028,0.7044732326,0.055672327,-0.7922783133,-0.7652128869,-0.7109723602,0.1196392764,-0.2416217158,0.6287547714,-0.8677703697,0.9589331283,-0.3900733605,0.3245599089,-0.9951236107,-0.6008647902,-0.3714365263,-0.6694829709,0.0244962434,0.3460586006,-0.6093117774,0.5548507226,0.1887596694,-0.7692903892,0.2085105265,-0.3739754066,0.1847689771,0.6613049614,-0.9322599904,-0.5441097498,0.0683481947,-0.5585614795,0.4043915509,0.0389023469,0.2216992311,-0.3825426287,-0.0652339299,1.1261421464,0.6725977184,0.9121675255,-0.1097946101,-0.8027551356,-0.7281848909,0.5891189795,0.1710977332,-0.115806778,0.6667879819,0.9315677999,0.9745478545,-0.281248798,0.650838245,0.3176876676,-0.9858487912,-0.9195217601,-0.1050148388,-0.2201568225,-0.3832086244,0.6070580649,-0.6221827577,0.5512240288,0.7309473371,-0.9479774577,0.7004657092,0.2589023569,-0.7267457812,0.1257455394,-0.1196800569,0.6306611062,-0.4000198865,0.80312995,0.0419284037,0.1686401319,0.0660087269,0.8518296613,0.7290062733,0.9700431693,0.1574181161,-0.3379225745,-0.8039587771,-0.0372366928,0.6315752231,1.2144365113,-0.5989553134,0.4133079888,-0.4573754331,1.0155497905,-0.7946575317,-0.4595922337,0.6491405167,0.5492371205,0.5341816621,0.9646819763,0.0916432508,0.2199672254,-0.3324460522,0.063937366,0.7591494907,0.2654788705,-0.1583999929,-0.1689349638,-0.3019800089,0.393120216,-0.5247065364,-0.3470305489,0.7153345377,-0.592442522,-0.531478338,0.6545334832,-0.1042423887,0.5385515016,0.0469493127,-0.4864124136,0.2666455473,0.3845381696,0.0405725531,-0.2920643275,-0.3288048207,-1.0622533896,-0.6230234638,0.0857797553,-0.6890878355,-0.7652294256,1.0113534663,0.4500227558,-0.2587562929,-0.4760134212,-1.0252555697,-0.4137868214,0.6566675472,-0.5154929953,1.0109068243,-0.004114275,0.0611707726,-0.8000689473,-0.0054909826,-0.0220535867,-0.0034018509,-0.7129123927,0.2605429255,-0.5949599341,-0.6703145319,0.6234555636,-0.4388279342,0.8670792552,-0.4687140216,0.1623213738,0.7344689224,0.1756621254,0.1593511204,-0.592634788,-0.597815921,0.2499719594,0.0768291791,0.5374458096,-0.4339324215,-0.4242331329,-1.0184215749,0.5097257103,-0.3500462888,-0.3642762953,0.2945305151,-0.1108163658,0.059924428,0.3191973861,-0.6709731302,-0.3595641823,-0.1701035195,0.4070635182,-0.7810504981,0.301050071,0.3538770862,0.8380814036,-0.4331625948,0.612868919,0.7410289892,-0.2076738792,0.2774127366,-0.8845389812,0.4589656806,0.6201054044,0.6819983694,0.118072112,0.3153334352,0.6952606336,-0.1682718317,-0.3742453591,0.8337510821,-0.2063287698,0.9327804662,-0.5854982256,-0.1719817532,-1.0817239465,-0.6317597213,-0.5461672235,0.3477883463,0.433137025,0.4515785999,-0.204730059,0.6037223216,0.5985149449,-0.3825277186,0.2752500263,-0.9239654891,-0.3632754872,-0.3856643812,-0.1259774155,-0.6656925767,0.4078220096,0.623937992,-1.0414504093,-0.2348068691,-0.481306266,0.7377130627,-0.0260719628,-0.4393880044,0.6272546769,0.0040335596,0.5944748336,-0.8070941224,-0.5616853435,-0.3122735866,0.9651788182,-0.707833094,-1.1091555477,-0.630045528,-0.6632509817,-0.6936026832,-0.6582998445,0.3769762282,1.0945483462,-0.0778397294,0.4340370888,-0.6231920124,-0.2537650858,-0.7678747942,0.7361457309,-0.1338437992,0.6220868813,0.0216429775,-0.6061793085,0.0140125382,0.773455941,-0.6762645071,-0.2358716364,0.7543436692,0.1638531128,-0.1288620192,-0.929578204,-1.3337996171,0.2274398938,0.4061623894,0.1607024027,-0.4631803621,0.5673833126,-0.208244104,0.6567565507,0.0335249169,1.2839550549,1.0028814789,0.2646618456,-0.5706956807,-1.0319014659,-0.563260884,0.8671714507,-0.4197100331,0.0440389342,0.5211601911,0.2120719181,0.6314656153,-0.0069975746,0.555496908,0.1969519295,-0.7822741227,0.4693276074,-0.9198945926,-0.9845185551,0.2988653264,0.1415853359,-0.7729122448,0.0904471822,0.810107187,-0.6562717048,-0.179952027,0.2697209449,0.9356460451,0.0002591732,0.9574703269,-0.5367362088,0.7608182392,0.9168097366,0.7514297114,0.3419597198,-1.0147163693,0.148972581,0.542933364,0.3402463602,-0.1982630065,0.6171136829,0.5497924838,0.1767514052,-0.6271866725,1.1094463173,1.1884086058,-0.546056869,0.2437760192,-0.9129134072,0.2037163787,-0.7048695085,-0.4480989544,-1.0673489184,0.875577918,-0.4229660182,-0.3314693174,-0.5568864273,0.1520881794,0.7790851165,0.8832012007,-0.0794944039,0.3192688111,0.8495141607,0.2793222562,1.1314514498,-0.4066019154,-0.2834712361,0.1081902682,0.1734300032,0.6872908218,-0.5401550556,0.6396751074,-0.2761851078,0.9567217561,-0.8589889127,0.124164042,-0.5725972529,0.8647397664,-0.9740506147,-0.3436025733,-0.6268711354,-0.0404591748,-1.0063769825,0.3215375859,1.2711036675,0.8701702406,-0.2710926751,-0.1653948675,-0.2059712544,0.5529733411,-0.2771666277,0.9144690719,0.6825111222,0.701934236,-0.3104995626,0.2461239927,-0.0801516524,0.3907292717,0.5517616035,-0.1367443802,0.0611496793,-0.1482930897,-0.9009621977,1.221446041,-0.1916217332,0.4819523836,-0.1654224184,0.2690063837,0.4133006196,0.4508554807,-0.5191484635,-0.6965592663,0.418770921,1.0901043583,-0.2525027354,1.0768947929,0.4672219479,0.4215881375,0.3258256725,0.2445363542,-0.00047234,0.6975329745,0.7019220316,-0.1853158019,-0.0313660274,0.8091094507,-0.6725458371,-0.7614199012,-0.4491006705,-1.087459522,-0.9126982796,1.4516276638,0.5604311643,-0.4784935066,-0.2431838836,-0.1032766028,0.0130359514,-1.0783668123,0.5390366013,1.5014469391,-0.5565943543,0.4322126219,-0.4511471064,0.0831536599,0.9699905678,-0.132913093,-0.5427136299,0.5884253073,-0.0938439481,-0.5912932537,1.2012387297,0.3975032754,-0.8835163203,1.2225731555,0.5227592546,0.9232181913,0.8716020279,0.7752443011,0.7848122056,-0.2398039924,0.7307923177,0.8688147666,-0.225486689,0.8223992513,1.064677877,0.0120260692,0.5070229909,-0.2767649376,0.6524430561,0.1403469732,-0.6657358848,-0.713142454,-0.2164562988,0.695003377,0.4176117073,0.4142723033,-0.4295259648,0.0799588792,0.8086147729,0.7564265914,-0.1388175023,-0.3842548467,-0.0299269096,-0.4150568123,-0.5473348199,0.3352037513,0.1485652112,-0.1147570941,0.0488995849,1.0413613296,-0.4492529586,0.7113096248,0.1359551097,0.6501191186,-0.9092171189,-0.6392819417,0.1782604445,-0.5371751364,0.7176755848,0.763511665,-0.9257788818,-0.096395439,0.5108359934,-0.3467536451,-0.5140290683,-0.0468613291,0.309209287,0.8314884222,-0.2115916174,-0.099411891,-0.756655295,0.1776136161,-0.9607411279,0.4731388375,0.0935652324,-0.5461508681,0.6919552871,-0.7500369309,0.5381090928,0.2877323433,0.2028207577,0.6391669225,-0.2930010768,0.6712193476,-0.0192977273,0.1752090584,-0.3698467971,0.998731693,-0.0440305172,0.5260613923,-0.0253612151,0.6091945379,0.0062558361,0.3472612583,-0.0668127341,0.7918761271,-0.785643874,0.7742281675,-1.4581133143,-0.1544090643,-0.623709536,-0.1772281032,0.0463363027,-0.7201581308,0.7548863345,0.0520292978,-0.7906365232,0.6790549353,-0.0046025038,0.7023672828,-0.551451026,0.7914217606,1.064461709,-0.6658105803,0.4147959504,-0.8828922878,-0.1338049924,-0.8984383003,0.0883912814,0.1611694124,-1.1725124784,-0.8170504535,0.7675112375,0.9723571325,0.2244480887,-0.3990061234,0.1520594793,-0.806674169,0.3753822254,-0.0184936542,-0.14146343,-0.5485502673,-0.5830091444,0.3698560085,-0.9825940617,0.2034111274,0.0272434992,0.9070564886,0.5121948764,-0.6493133075,0.0867112991,1.300646783,0.4259773813,0.2602801119,-0.5656593751,-1.4045451726,-0.8402922783,0.4568525508,0.5448313951,-0.7415619422,-0.7683154971,0.1352904686,0.5364745324,-0.7398709859,0.1102470239,0.9080357302,0.1945835967,0.2742146743,0.6995932742,0.4297904579,1.433990153,-0.5698595584,-0.7926329172,0.136419695,-0.578903324,0.0441026874,0.0203237533,0.0033664319,0.2558329412,0.1037812586,0.4078208586,-0.6745986693,-0.7944410975,-0.8116851153,0.1061634202,0.5054207598,-0.443542941,0.856256513,-0.9443615837,-0.4492939328,0.6396223898,-0.673496015,-0.8570843607,-0.506432216,1.1021550874,-0.1978170784,-0.296900501,0.4160447205,0.5743706261,0.4547085318,1.2504602923,0.7492375967,0.7334129661,0.8817747248,0.8936451651,-0.1702896152,0.3222641043,0.7441752334,-0.685452231,-0.4658787,1.1342706184,-0.1493886612,-0.4205332108,0.4852365439,-0.2712829404,-1.5167859168,-1.050442817,-1.0676773292,-0.4542508688,0.490842273,-0.8055069056,0.4193680845,-0.3506877475,-0.8447919809,-0.1742269835,0.3029069684,0.3943370002
   0.9195326144,-1.0370794662,-0.9489364299,-0.3328871431,0.8779016127,-0.4356924086,-0.341073085,-0.0836968683,0.0429481182,0.5271602333,-0.0959922781,0.7686720506,0.9028890251,0.2272622628,0.9700848919,0.7818787132,0.2765384463,-0.5512732338,-0.7960132051,-0.2302616534,-0.3956617796,-0.5621780918,0.7886486102,0.1227410873,0.2295692264,0.4571335057,0.2260412782,-0.5909243287,-0.0168943381,-0.5321612759,-0.0988889902,0.2020012102,0.2777817339,-0.0052329357,0.5320505481,-0.7155592485,0.7372152469,0.149919849,-0.3916687428,-0.4007585367,-0.7999537566,0.1225860458,-0.0089864443,-1.0422030515,0.3163519403,0.6526491367,0.38234172,-1.4902929788,-0.1084198159,-0.6471080082,-0.7806631868,-0.4060034827,0.0580219504,0.4237035146,-0.9222975238,-0.0990817983,0.6548643074,-0.6641721164,0.9844904471,0.7325235242,0.1500381198,0.5705619992,-0.2936653469,-0.9139920028,0.5545712146,-0.1150114026,0.1497227638,0.1139748147,0.2976130001,0.5000453739,0.1620374319,0.4010746703,-0.7899215925,-0.838288332,-0.5873641081,-0.8364431409,-0.8146351325,0.1967705647,-1.1260754497,-0.9496275905,-0.7458285655,-0.9002008609,0.4343335294,0.0953763344,-0.3807601754,-0.3879860023,0.7083904129,0.1536061416,-0.7682870422,-0.7593185323,0.6008398577,-0.1390958211,0.3281594257,0.0278640746,-0.0252695337,-0.7534428688,-0.2426793982,0.4580273672,-0.7735304781,0.9829188293,0.333447668,0.1280534023,-0.5847584051,0.1199663739,0.0610251477,-0.1884694659,-0.3759224032,0.2296061826,-0.7136139754,-0.482619149,1.2779332368,0.2044100264,-1.0670097286,0.2223965191,0.0566949258,0.5200794506,-0.1562526908,0.347064321,0.1856475178,0.614760891,-0.753739226,-0.14310816,-0.681198625,-0.1916874079,0.5971906899,0.5290001221,0.1983320249,-0.7366800669,0.6222677204,-1.5139605758,-0.0118933826,0.6245717307,0.6881381951,0.0224866702,-0.5700524306,0.5212554725,0.0467810942,0.677434328,0.0497406734,-1.3734082721,-0.6717276198,0.1166222059,1.1853295113,0.7054249287,-0.0161484999,0.790865947,0.0021516189,0.2680608774,-0.8034887011,-0.9144370233,0.6927686431,-0.6153727391,-0.8483572076,1.1855581426,-1.1113884756,0.4797779783,-0.7274208885,-0.7564723896,-1.1222987785,0.9160397511,-0.7178501333,-0.9082319095,-0.8201940316,-0.2497940027,-0.4096102345,0.9259608264,0.9361442853,-0.5864435877,-0.7410865698,-0.476140541,0.6392279428,-0.1203696033,-0.0931575346,0.125640797,0.4036085917,-0.9612563841,0.3987369886,-1.0037188123,0.1707262641,1.1883239703,-1.2689835371,0.1909133064,0.2845785906,0.1373800743,-0.2998708209,0.0431393259,0.0306791756,-0.1113624193,-1.2632233414,0.6127848761,-0.8374421829,-0.6653092972,-0.3252242682,-0.3871099932,0.3415112733,-0.1919969448,-0.5525026667,-0.9138270499,0.4882307053,0.2133259035,0.3292516625,-1.3294411963,0.8234297336,-0.9716738502,0.2197218901,0.4650393382,-0.5748713003,0.5374325981,-0.9885639961,1.1699042361,0.6751919467,0.1812738779,0.3874386664,-0.1088645674,0.393331231,-0.5451046383,-0.7659536256,0.1229061937,-0.5755063496,0.3964998878,0.8298458474,0.0146704595,-0.1903947514,0.3470351903,0.4742370477,-0.256993448,-1.0291265672,-0.5325921214,-0.5393823673,0.1641973019,-0.225912768,-0.9570228577,-0.4371750244,-0.5239598856,0.9577741514,-0.8939277414,-0.7938288887,-0.7109616131,0.725998818,0.5338639311,0.6238856913,-0.2319118813,-0.6367249659,0.3842419293,1.2580645875,-0.3387003618,-1.0010762217,0.2831070562,0.4693790554,0.608321716,-0.1519996353,-0.8538876964,-0.0632224439,0.3249818767,-1.0357511623,-0.357344569,-0.6018855585,-0.3490218173,-0.2483434625,0.8846001629,0.7429623353,-0.9495625908,-0.2843151979,-0.4597239908,0.6469595273,0.2697505247,-0.6681328052,0.2481932646,-0.1219663893,-0.3981425949,0.7355854044,0.7408892473,0.2612695854,0.4364235666,0.4912284931,0.9110916189,-0.7897842453,0.4880613486,-0.2734990477,-0.8464705562,0.5898524211,0.1162420133,0.3828084677,-0.6210761675,0.010582709,1.1450125464,1.1288905075,-0.5387649819,0.2656659203,-0.653904218,-0.6907685158,-0.6119515749,0.2721201484,-0.4410530179,-0.4944511598,-0.43472786,-1.0425996995,-0.3857575237,0.0041988454,-0.0958690131,0.1528589305,-1.173652843,-0.4898809224,-0.1357589586,0.6299264165,-0.6759792017,-0.8312975841,1.2273802855,0.5838754858,-0.3845297493,-0.2713559349,0.8601810943,0.7748507226,-0.2774314497,-0.310137295,0.3359910259,-0.1889836952,-0.6532999236,0.0993719415,0.4074791125,0.2299488435,0.226682639,1.2533829482,-0.9733626515,-0.853709496,0.4362735804,0.3308282583,-0.0333977644,0.1300203469,0.2963064056,-0.1519672914,-0.0906069573,-0.3929905855,-0.1872648334,0.5330837584,-0.3642314544,0.6857851838,1.0781693818,-0.2829419576,0.4542197755,-0.1243559216,0.081530172,-0.3740906765,-0.0473556549,0.885933768,-0.4096262649,1.3063075251,0.9030816618,0.761242695,0.4282398659,-1.0212784326,0.0016631795,0.4159155464,0.3232237564,0.0449012182,-1.1302415998,-0.3039696533,-0.3989111466,0.2865704375,-1.0422431083,-0.0561302388,1.3210230097,1.055657817,0.973985824,0.6899864442,-0.5991706933,0.2691123785,-0.2137517487,-0.5991854882,-1.0426732268,-0.7787631422,0.2859221462,0.8694864198,-0.1784262682,-0.8353161762,0.8230340786,0.4060407984,-0.8279644682,-0.344880738,-0.4497473136,0.7164858519,-0.5643301988,0.6722612965,-0.4713980398,0.3118766932,-1.0438759309,-0.0597372357,-0.3047202705,-0.2712734676,-0.7148812407,0.023675732,-0.0104416366,0.3629526545,-0.1556381207,-0.3527550578,0.0570890265,0.8716286405,0.0194585263,1.0176614334,0.7160907932,1.0049485046,0.2017756765,-0.3112404836,0.5045583963,-1.040135479,-0.8248301496,0.3304489616,-0.1377543667,-0.4050616915,-0.6692531058,-0.3183702746,-0.8845682057,-0.3696337659,0.2126857996,1.288810467,0.6626491754,-0.1757164081,0.2827093461,-0.5977463327,-0.8253474063,-0.5614993028,-0.5420027539,0.2887773817,0.4820365609,0.9654303316,-1.0286072434,0.3531796011,0.1605636875,-0.2398128332,-0.5288740756,0.1072820094,-0.6543611777,-0.3324335671,0.9365331132,-0.5488885838,0.4329015961,0.6863589154,0.2711033052,0.0567080013,0.0354242033,-0.3415389136,-0.6188545017,-0.8634116243,-0.2464276553,-0.4464553393,0.6644656921,0.5840140259,-0.4890228514,0.1038928675,-0.4055434857,-0.9883196033,0.2842239456,0.6058413599,-0.9792860997,0.7363759341,0.2907153863,-0.7201355063,-0.0251301495,-0.5085252011,0.3692046591,0.638953513,0.749199264,0.8430798285,-0.0580745768,1.1175631847,0.6047336145,-0.704418206,-0.4456264317,-0.1462485729,-0.3463940043,0.0341222282,0.6676964931,1.1198830233,1.1523205023,0.9609643901,-0.8285509401,-1.0880881277,0.1736375336,-0.2233027685,1.0272175683,-0.0511582018,-0.3453010964,0.9240528829,-0.8033336325,1.0985099043,-0.0480489409,-0.1842726605,0.1907984872,0.1302622929,0.2542954015,-0.1803267991,0.4860575486,0.1371946791,-0.5981589486,-0.5413142795,-0.2678347017,-0.5642386549,-0.2217411702,0.2929476466,-0.7852572291,0.2887003452,-0.1274563962,0.4824190026,0.4841081029,0.431758469,0.6943265471,-0.0996886885,0.0000125202,0.0757751155,-0.3089365244,-0.038476996,-0.8736533306,0.1492596479,0.2183681222,0.8161307556,-0.7721290375,0.8916860754,-0.2632153866,0.2205780987,-0.1786756148,0.8278622899,0.4289958486,-0.7317499299,-0.1289591638,0.3337241257,0.5359025792,0.2304002527,1.0034770737,0.2996740613,-0.0875273729,-0.5412478774,-0.7010497436,0.0944618178,-0.7660768085,0.0732551177,1.0143310191,0.6740077611,-0.6019731972,-0.7632110615,0.1691626051,0.3912527381,0.9153570609,0.8645224524,-1.0125912477,0.0187866482,0.8554680069,0.8427489791,-0.5043942237,-0.2960753393,0.0898267914,0.8554332675,-0.5166676809,-0.2229272167,0.4159790345,-0.0339549702,1.0257123857,-0.6520553359,-0.1350837001,0.6945963549,-0.3852014521,-0.3510643899,-1.0623164584,-0.3720960627,0.3134368869,0.7526886279,-0.4111969357,0.6045099249,0.3714435724,-0.2487305413,-0.2760927828,0.4032166491,-0.2725686445,-0.7923145792,0.3525361959,-0.5442457182,-0.2549036107,-0.8448293575,0.1867052573,0.3863614228,0.5627509224,0.3396092043,-0.0390043504,-0.6316082537,0.226098382,-0.9023609035,0.934013522,-0.270597626,0.8111761115,0.9856591969,-0.5662471175,0.4072405164,-1.0737513431,-0.6770981429,0.7289859826,-0.2374106652,-0.5364955961,1.0983261707,0.2168205143,-0.8525903873,-0.5793918566,0.3036077892,0.4752206001,0.3539511817,-0.8955708086,0.1116392528,-0.4910806055,0.6035910924,-0.7583458351,0.3674174024,-0.3533823805,-0.0868943098,-0.4611694774,0.5377500011,0.3285236346,0.077042969,-0.1868317291,-0.3288886973,-0.4519816923,-0.3125203458,0.509187426,-0.551403999,-0.8691819,1.0982743014,-0.3376831097,0.3329417015,-0.0005887675,0.6098699981,-0.3636403045,0.7441696454,0.9099134673,-0.4279534866,-0.1245954423,0.0146490928,0.146952741,0.5256639543,-0.5523001915,-0.0150665312,0.3450367079,0.4938322334,-0.3421894915,-1.0834833427,-0.0669536362,0.4908555087,-0.0896644429,0.644510949,0.5756320311,-0.4716461952,0.5022645085,-0.9162717755,-0.1090953676,0.5235741909,0.3770908833,-0.0048778363,0.5889302688,0.1481764325,0.2616976645,-0.8654726328,0.9417091775,0.0399438858,-0.8469056344,-1.297485054,0.6750021929,0.7906273646,0.3281581575,-0.2179216245,-0.4405650381,0.4100561784,-0.613681942,0.4941948583,-1.0372387543,-0.7378390824,-0.5488111169,-0.2004523474,0.4242078092,0.1579298283,0.8875406598,-0.0569331447,-1.7412088408,-0.9642004677,-0.020067294,1.9032671285,-0.5190955333,-0.0192784379,-0.3292845441,0.8665266437,-0.301458542,0.4223439206,0.8031315616,-0.2902526312,0.7031726823,-0.0244668107,-0.3663434537,0.7220224974,0.7830262719,-0.9321650936,-0.1997812078,-0.0433454853,-0.4462057834,-0.1595084715,-0.4152712032,-0.5917121077,-1.1723998966,0.077711651,-0.1165844454,1.1425272792,0.1726212421,0.888835856,1.0856546661,0.2910938116,-1.2024178685,-0.2793095281,0.488972479,-0.3130074948,0.3431429094,-1.1909502611,-0.5267871442,0.7503699326,0.9169278591,-1.0706891516,0.8258496603,-0.2663554562,-0.2104182081,0.9286745732,0.4093504261,0.7306072856,-0.284357624,-0.9627382691,-0.07522496,-0.5244010266,-0.8011753344,-0.6415256149,-0.2446624856,-0.808495506,-0.5880130065,-0.560450509,-0.1194772838,-0.3681373694,-0.3708934852,0.0041559114,-0.6183339753,-0.8055533096,-0.0757947512,0.8290419019,-1.1994264346,0.6684590873,0.1822846571,-0.2646401786,-0.1724466299,0.7628714485,0.6870100633,0.6080740103,0.1504112363,0.6357542671,-0.8418978196,0.0752624533,0.9299461191,0.4339975302,0.685222179,-0.4893689271,-0.6937518195,0.1943873461,0.1811607691,1.1095850763,0.6573490505,-0.0781977974,-0.8940855769,-0.9073548778,0.6072134483,0.7303185645,0.0000199479,-1.0085615396,0.7319321826,-0.9584829485,1.0447344716,-0.4856287933,0.8022244822,0.1794736158,1.0388380121,-0.3400922935,0.2866637509,-1.0202216531,-1.0115817528,-0.854604009,0.34005213,0.207876034,-0.308022312,0.5797479678,0.9821583,-0.2539508218,0.3980332633,0.4114678385,-0.2129911376,0.6932935372,0.3844356311,-0.2503700229,-0.9163161453,0.6023548749,0.6500877415,0.9461175385,-0.8111255057,-1.0769802214,0.6986057712,-0.811426546,0.0537919071,0.1382498131,-0.2296780179,-0.5127683927,0.7960157621,-1.0166542486,0.2088466275,0.1348766853,0.0428630632,0.7470328847,0.325537774,-0.0986589536,-0.5716600506,0.1746978304,-0.8718632881,-0.9205916481,0.7125101628,-0.3163851766,0.4015863478,0.7634472256,0.965229288,1.4510722186,-0.1184692036,0.321173553,0.8173446694,-0.8335306424,-0.0563368509,-0.16700975,-0.9297993812,1.1389229544,0.4987561802,0.6840663653,0.2731942774,-0.9776240377,-0.0111661034,0.7836553694,0.0119925854,-0.9518152579,-0.0956496813,0.8569909888,-0.7047917682,-0.3363072548,0.5525486826,-1.4724101899,-0.5113369413,-0.1363833325,-0.1832715497,-0.7095375212,-0.1716478592,0.7168152834,0.1878767169,-0.5424992205,-0.4582842822,-0.7364915522,-0.2250781688,0.6782056854,-0.9108288231,0.0670349852,0.7973788217,-0.6922110076,0.2044024085,-0.2136326734,0.3997633655,0.729124068,-0.9115201947,-1.2066923287,0.6244319293,0.0401236598,0.7933472357,-0.5250010807,-0.6402496261,0.4313541791,-0.1884287334,-0.848553337,0.5365736499,0.5002712943,0.8643942149,-0.9153673599,-1.076321837,-0.08888885,-0.6610468284,-0.5483079176,-0.426643345,-0.0868650603,0.0703733677,-0.5232779292,-0.7261890086,0.0580865382,-1.4858866246,0.8184190631,-0.3900442809,-0.8076097127,0.1469149208,-0.6021514035,-0.2381012752,0.173008327,0.7739551213,0.0608904668,0.1029223132,0.0561544966,-0.7664335066,-0.4195595443,-0.0517480485,-0.4880759044,-0.0637804255,-0.2998766556,1.1816841927,0.9553414755,-0.7504774208,0.5658274989,-0.4293094432,0.2581449209,-0.7596439872,-0.2100750398,-0.9900821812,1.0777332601,0.1263120385,-1.1199419679,-0.1630612697,-0.7124203362,0.1381008077,-0.450371889,-0.5490440266,0.3073428667,0.2981855616,0.1798020497,0.2122154565,0.0373317052,0.6064815029,-0.2768755609,0.8459726781,0.2121221676,0.6952438047,0.3633142029,0.4803181271,0.0899937364,-0.6033694045,0.3807636048,0.4713282645,0.5397724237,-0.0731044126,0.1720807052,0.4750247238,1.184256464,0.7117772975,0.2399793209,-0.6577564334,-0.3466830532,0.2085487573,-0.2383744552,-0.2237157319,0.2436978086,0.428824102,0.3716829464,1.0723200713,0.0955099508,-0.5060073659,0.2577202217,0.7269688576,1.2284852003,-0.0754275026,1.4407472415,-0.0950073136,-0.754558372,-0.0976264841,0.7784883532,0.5002937486,-0.6618178986,0.5343257623,-0.2931826007,0.5896853521,0.0272877519,-1.3695085765,0.9086201773,1.449739882,0.2639131581,-0.0672184924,-0.3696595485,1.0494964759,-0.9652061667,-0.7177368531,-0.5033903443,0.507127856,0.0762963692,-0.6759943404,-0.7556093224,0.1042179333,-0.2190059847,-0.237573131,0.1483957775,0.2560269136,0.995709976,0.669677042,0.7992833788,0.175463915,-0.0528621005,0.5625069311,0.2921693395,-0.9640182378,-0.013107074,0.328262959,-1.3722702955,-0.6266727757,0.9052456767,-0.145277339,-0.8930056556,0.8604456487,-0.7719911844,-0.7096358378,0.417710089,0.638375502,0.667983434,0.2631216332,0.0442584502,0.3525917881,-1.3259564614,0.259147392,0.705949912,0.556413675,0.2537959937,-0.8438949841,0.458328031,-0.5308038468,0.2559276107,-0.4362152797,-0.4049719968,-1.0347219246,0.7014023673,-0.5035054243,-0.2225711231,-0.4618045166,0.5339786359,-0.1746661135,-0.1647696414,0.8051166814,-0.3658125217,0.6947249045,0.542175965,0.2069586037,0.4510812877,-0.3384914989,0.055159586,-0.0992345358,0.7192848675,-0.1933152406,0.553165423,0.6879936122,-0.3848543062,0.5192871149,-0.1642078274,0.827717252,-1.1764316548,0.6175966317,0.033943213,0.2600842529,0.1211712087,0.074152464,0.5070665605,0.3578727396,-0.2105102704,-0.918201624,0.3677408337,-2.2202210091,0.2242554724,0.0983970378,-0.363635894,-0.9501244376,-0.3907111249,-0.5997403448,0.963201394,-0.3805775422,0.724337763,-0.2191070868,-0.1098172499,0.1929317533,-1.1811732874,1.0470735062,-0.9455308648,1.1479328285,0.1167836438,0.6175513687,-0.2717839659,0.5732120007,-1.0611334029,-0.7888785823,-0.7894787146,-0.0700634535,0.7145881418,-0.1658453772,-1.1584848151,-0.0189245621,0.3921380046,-0.7180078431,-0.5720389216,-0.0484975516,0.1677959048,-0.328946364,-0.0572186251,-0.4412971248,-0.1740205822,-0.7921925393,0.7829073422,0.0036730358,0.7054049384,-0.5137332693,-0.0614182815,-0.1430550485,-0.5143377972,0.7207563657,-0.7870136629,-0.2751840838,-0.1201854804,0.395223224,0.3987583636,-0.942959055,-0.3453400464,-0.0358681334,-0.2501366899,-0.5803015872,-0.0052497017,0.2772202547,-1.0033822879,-0.3627035641,-1.0063124727,-0.8118467837,-0.2927563201,-0.8566894946,0.9688032097,0.0328290743,-0.7132813762,-0.3241803687,0.04951251,-0.2540112554,0.457783073,1.1968980822,-0.2984779036,-0.8416798985,-0.5405094539,0.4434483117,-0.7333022933,1.7421665087,-0.9348926135,0.1187673969,-0.275888191,-0.2255876959,-0.5526365234,-0.189914094,0.6975931166,1.022276737,-0.6847620071,0.3643526606,-0.6441198359,-0.4584176629,0.3496096902,1.2300445132,0.3971602664,0.9662719532,0.815348181,-0.284859582,-0.7181937105,-0.7567945795,-0.157996806,-0.9569903715,-1.3992394463,0.8107065033,0.0177964389,-0.4534847748,-0.9568388877,-0.960081292,0.4504016103,-0.2799844007,-0.3778822027,-1.0333576764,0.934397143,0.2478874028,-0.0922283299,-0.366628128,0.4361292411,-0.6155601809,-0.1950043442,-0.4756741252,-0.4462496111,0.2411655139,-0.2039487546,0.9560158459,-0.584096698,0.4802206339,0.4611064318,-0.5039628691,0.067179528,-0.6658980105,0.7870531662,0.7321875735,-0.9704143657,1.5705387074,-0.3727290278,0.0524277421,1.140986492,-1.4551754867,-1.6219400831,0.669222144,-0.3010892754,-0.50493461,-0.962661665,-0.1618410291,0.0473784211,0.0147850722,0.0294645911,-0.650322086,-0.3256863603,-0.4523502699,-0.8417553215,-0.7000831955,0.2633158992,0.7744818145,-0.8845368453,0.4010441662,-0.6993722582,-0.6318107624,0.282074063,-1.056957856,0.1788527479,-0.2199562668,0.7695721681,0.1158480883,-1.1266419765,0.0819419254,0.0613570999,0.4954614382,-0.4547339437,0.439782426,0.7526900735,-0.7056759467,0.8211331436,-1.0421971153,0.9676279312,-0.0123017854,-1.1174506041,0.4967986313,-0.7098792452,-0.7807751441,-0.8670961634,-0.2627509066,-0.7165669023,1.0016207452,0.549112787,-0.5705119538,0.5709194084,-0.5961521462,0.6226880943,0.2024675059,-0.9104407157,-0.2531269103,0.3516221438,1.4477722828,0.1847836519,0.4576068632,-1.1124369847,0.1670961585,0.1887756332,-0.6465227808,0.9906425311,0.261035717,-0.6320295112,0.0966213641,-0.4503971863,0.5288005436,-0.6817560927,1.0650141882,1.1823631907,0.6416101546,-0.5832181446,0.2667588315,0.0798123527,0.3544237515,0.345373441,0.9182007455,0.7250365302,-0.1630193155,-0.6230987604,0.3205746496,0.6053478017,-0.4321292121,0.1945167257,-0.4416206791,-0.0216577286,-0.3489498396,0.8995365483,-0.1638698186,-0.1850621111,-0.0992489452,-0.3874366857,0.6283700405,1.1884319943,0.6654621472,0.1204254973,-0.5759394048,0.9876777987,0.0954328395,-0.2815059829,-0.5958526072,0.5186378048,0.3210666684,0.6219787539,-0.6988116979,-1.128207377,-0.529104396,0.0344218057,-0.069928178,-0.0441708225,0.0483881022,2.3333345225,-1.0702769427,-0.0279508398,0.8218530208,-1.4146843033,-1.0567274089,-1.8898705741,0.1450715249,0.9159586265,-0.6599387447,-0.0953486874,1.0085507362,-0.5999420914,0.8971672638,-0.8460321965,-1.0189066494,0.0295690787,-0.3122193082,-0.5307477234,-0.2213871176,0.2960282809,-0.211262829,-0.2740305807,-1.0078591598,0.7454789659,-0.2964516686,-0.6843021316,-0.1492187859,0.4475688224,0.0789562967,-0.2691440529,-0.2928712467,0.235638397,-0.1298081515,-0.1044582188,-0.546665227,-0.0932026361,0.4396607854,-0.7766410802,0.0511800549,0.4698625786,-0.4706253091,0.4100112589,-0.1454902737,0.9709081002,-0.2233229213,0.4367393889,0.8115598943,-0.624923234,1.0467569005,-0.5531877882,-0.5793925545,-1.0904019791,0.0108005466,0.1612709083,-0.2082134998,0.7333182349,-0.0018707278,-0.264099539,-0.7347517755,-0.2922387916,0.7102217983,0.1815293275,-0.791423953,0.4644729516,0.0358263509,-0.7618932286,1.1977577913,0.6939507288,0.2957440177,0.0764779428,1.0080529492,0.5648919228,1.184924775,0.5234712063,0.2013505745,-0.16962559,0.6707776374,0.2089631078,-0.2224182341,-1.3196095891,0.5311729594,0.4906855303,-0.8486104918,-0.0337524706,1.4105611581,0.3582010435,-0.3987877386,-0.9693615309,-0.1762992633,-0.4721017683,1.2902397935,0.4785302652,-0.3023582363,0.8297681292,0.9728536811,0.3597465626,0.1963905032,-0.0063668471,1.2954643843,-0.8127515289,-0.6213358179,-0.3929809164,0.2386710284,0.3693757739,1.0274320595,-0.8727482679,0.047452171,-0.371956188,-0.256399991,0.6199653093,1.126538373,-0.2734161664,0.5802953851,0.1724636467,-0.7554728749,-0.0208805483,0.7646427495,-0.9411298137,-0.3427440827,-0.9109993863,1.9809441991,0.9941409729,0.2156088166,-0.3699216516,-0.3756246162,2.0109523786,-0.3771718878,-0.4343455465,0.2309009106,-0.6806464106,2.2404028987,-0.7764698598,-0.2926692431,-0.1653255209,0.0243921535,0.8995598093,0.5786966801,0.712819459,0.6171955553,1.5953179092,0.0879876845,-1.09892223,-0.2027072025,0.8480033377,0.877353836,-0.3043229364,0.9582455166,0.1072305821,1.4364281793,0.2951682746,-0.8504185013,-0.1380914088,0.7706801922,0.7701448665,0.2674210923,0.1443500167,0.686733617,0.9887790744,-0.7746861958,-0.6400285603,0.33627439,0.2043610448,0.0347042011,0.578112798,-0.6113138671,0.2583229812,0.6597337184,-0.6464029211,-0.3400638419,0.1058297479,-0.1111346575,0.6401522089,0.0679536596,-0.3946921153,0.1610369061,0.7180332681,-0.5824401112,-0.4030953664,-0.8054298312,-0.3865116987,0.8463707321,-0.8163137257,-0.6914667131,0.9285700534,-0.9117271006,-0.7389814717,-0.2373754742,0.5427292853,0.8610166388,-0.0015842891,0.6811202767,-0.7486319259,-0.8629075285,0.5371747141,-0.0964758691,0.9066366153,-0.2745181634,0.3210667652,-0.3797583249,0.8822022854,0.1434158398,0.4881402073,-0.539542002,0.4460146206,0.6703762012,1.1805819603,0.5124605506,0.0432430488,0.2888607921,0.221378596,0.0449442218,0.1330489354,-0.1545568915,-0.5999962633,-1.0332641747,-0.1683512347,1.1061807292,-0.4944659818,0.5728642863,0.8364128095,0.9057662445,-0.3802528486,0.4808255686,0.6045403787,0.2107230449,0.1309567012,0.2625835921,0.0894067865,-0.8438588793,0.0048598894,-0.281210572,-0.4973219883,0.7977472609,0.1079384326,-0.660039826,0.1643871898,-0.3305748342,-0.3982640148,0.0169178795,0.0435868056,0.8093655474,-0.9392231536,0.909979054,-0.9114372156,-0.0739570156,0.0552446906,0.5963674362,-0.1506241136,0.1714510301,0.3501379614,-0.135028038,0.1648410522,-0.9930854069,-0.701060386,0.1415894074,-0.0121772926,0.1574399681,-0.7673831126,-0.6047636652,-0.2927697931,0.6841417549,-0.801498477,0.0721861267,1.3208557047,-0.5022827457,-0.0850428254,0.3759345186,-0.8678861212,-0.8240358847,-0.7818393556,-1.2282970673,-0.6174882616,1.3857823318,0.011489462,0.1870048062,0.4250744601,-0.004717746,0.2365984812,0.8688987608,-0.0725150553,-0.6434157693,1.1589980808,-0.7837576382,0.2583489374,-0.01908828,0.0454748259,-0.0696459564,0.8320611706,-0.9199344612,-0.1859961649,-0.7086952069,-1.6581246453,-0.0190714647,0.6374796895,-0.2125209377,-1.1570968231,-0.6553292674,0.2616706664,0.984069711,-0.5127365255,-0.4612216135,0.8432699975,0.3973689744,0.157786769,-0.9128693916,-0.4408598795,0.1446601263,0.0163501464,0.2050727244,-0.2999391114,-0.5663401604,0.5193684623,-0.0830335621,-0.2708366953,0.8397775573,1.0691016198,2.707918745,0.2113889868,-0.6477867684,0.2992779141,-0.0659112321,-0.4771016651,-0.5036776394,0.6919350793,0.3941539278,0.6441461107,0.7967306681,-0.3954068311,0.3019360826,-0.2064825629,-0.6746141789,0.4260981421,0.0860467241,-0.7379193018,-0.6836991091,0.9057169208,0.653383111,-0.6675054722,0.7997655031,-0.5021182407,-1.0436019161,-1.0053370265,-0.0875761216,0.9432546632,0.5095055067,-0.2589475926,0.0728008642,1.751247923,0.9756696064,0.8207140764,0.9422633485,0.1385573407,0.5660370912,-0.5320010958,0.6244531377,-0.8596784437,0.6556378089,0.7819080924,-0.5867749804,0.678438051,0.8693649921,0.1999067062,1.2343004661,0.6907001487,-1.0229527096,-0.6769035765,0.3245806553,0.6858956595,-0.7034706496,0.7116159795,-0.6069829549,-0.4974402741,0.6041313213,0.529262671,0.4931533248,0.7137413894,-1.0433525855,-0.754673285,0.4554550493,1.5624697861,-0.8117294428,-0.6385050197,-0.6470165458,0.8021721531,1.3023454184,-0.5874140938,0.594616597,-0.5268602004,0.7649088035,-1.0194424569,-1.0266024773,-1.1040974973,0.6102680086,1.0456379659,0.1893359574,0.7148581179,0.9211239652,-0.987833063,0.4990515906,0.9846120574,0.1725500684,0.4646081555,-0.8457543518,0.0297271542,0.3018812723,-0.062937074,0.8016228828,-0.5883760086,-0.5914511391,0.1364090839,-0.0984748695,-0.5275631698,0.3822357964,1.5389654005,-0.6606156665,0.5979954188,-0.9547396741,0.6015299126,-0.7380658549,-0.8960593779,-0.1350262551,0.3582707504,-0.6237073901,-0.5924374032,0.8898420692,0.1461900984,-0.5826013104,-0.563779597,-1.2690349707,-0.0601843973,0.5680077317,-0.6132723907,-0.3960933078,0.585306993,0.1839758255,0.8407233703,-0.2351364303,-0.2968984766,-0.79679465,-0.6313026872,0.2305494976,-0.2937383979,-0.8426646031,-0.869959253,0.1522083007,0.1290201452,0.7412082056,-1.1552164393,-0.5526010588,0.47936433,0.4016188148,-0.5119902384,0.8248437378,-1.038811092,-0.6104410003,-0.2499631145,1.0323704735,-1.0164434355,0.9750427051,-0.0598890926,-0.4876566573,0.1335331945,0.6254321652,-1.1445955917,-0.5327846597,0.2233743378,-0.2541078888,0.5352645317,-0.54441253,1.0798610243,2.002320287,0.1698250717,-0.706392536,-0.7987320907,-0.2831102067,-0.4803742606,-0.7605485571,-0.2945926152,-1.0832471149,0.3969740039,-0.8499234979,0.2816986328,0.6404084453,0.6453466757,-0.4531572327,-0.0265299633,0.2862155148,0.295610492,0.8148481861,-0.480578964,-0.3080086438,-0.542957988,-0.345929206,-0.4523591824,-0.037569412,-0.7814873754,0.7428187806,0.3205884602,-0.7803312684,-0.7554434458,-1.0660902719,-0.1616443048,-0.710144475,0.7448462544,0.7246584519,0.3848653473,-0.5017140876,-0.2925602929,0.0855464653,-0.696544306,-0.9926792225,-0.8736276114,-0.0037034417,-0.466350823,0.9658471587,-1.0930991482,-0.7095311684,-0.1576246096,0.2397157635,-1.1333680632,1.6016398428,-0.2074046282,-0.1886589202,0.527068501,0.8663378244,0.0317827812,0.652805872,-0.2921202479,0.808203678,0.5233853216,0.6634731528,1.1273569337,-0.9302016878,-0.4524601241,0.159428872,-0.8751731851,0.9065379598,0.6889663728,-0.1451875417,0.6983835869,-0.4181822592,-1.1735989022,-0.8824402387,0.7376407674,0.0643377752,0.4784559587,0.9740450196,0.1833871065,-0.4888838975,0.8383860591,-0.4773832985,1.452375706,-1.1485536577,-0.748458463,0.3759951503,-0.202372167,-0.9942641943,0.9099859412,0.1424786058,-0.5043838895,-0.5544563232,0.5027920562,0.7491981199,-0.5072851788,-0.1894284214,0.2069912308,-0.4459727193,-1.0769338555,-0.5898833139,0.1333798337,-0.3673687145,-0.7793206859,-0.4854216812,0.5265545285,0.232004928,-0.3639988946,-0.2041989756,-0.2322530686,0.0657551156,0.1704902526,0.6094284622,0.031692445,0.6401862831,0.8700984592,0.6512055189,-0.1633417879,0.6893838031,0.1975594664,0.2236752376,-0.3073560801,-0.5815208986,0.472529985,-1.1867620775,-0.4625096935,-0.1754721631,-0.9867080476,0.601919571,0.8415965864,0.6233166045,-0.4084981583,-0.6003748787,-0.1998168012,0.5900775153,0.0446363484,-0.2235108884,-0.593537976,0.8230449042,1.0428968324,0.7952581013,-0.4326225715,1.287234753,0.0918927422,0.7110797853,-1.3735547745,0.1822737169,-0.8721838831,0.1432081976,-0.4364011996,-0.2917873217,0.7792972397,-0.0297934826,-0.1297209326,-0.3826704467,0.0661800775,0.2250022044,0.942185709,0.5676510042,-0.8064235055,-0.6072784771,-0.5660948597,1.0484642285,0.4985291805,0.1230179829,-0.5733352682,-0.9639029744,-0.2447494734,0.2466518937,-0.7866409477,-0.9969080501,-0.6069604913,-0.2244720138,0.114393412,-0.2261112608,1.9875350118,0.8425961122,-0.2586121041,0.2502823415,-0.4756765447,0.9994523159,0.9692143921,0.2313000331,0.3571181683,0.9599310813,0.7215276607,-0.9387292508,0.1006842194,-0.3599777516,-0.5656641801,-0.4117222372,0.9501738506,-0.0503786614,0.612840445,0.8617169321,0.9295446659,0.722340831,-0.7052055044,1.0427878567,-0.5099091871,0.9621081599,-0.2636586172,0.3493751717,0.3727439166,-0.5635523205,0.5297697294,-0.5942163965,0.357168368,0.003083322,0.4824642482,-0.1832568742,-1.0829905524,-0.6381093183,0.5504004848,-0.6511226397,0.7764102543,0.878220185,-0.9970567821,0.7597662874,0.4760610947,0.8488635592,0.5194395418,0.2678636478,-0.1825937548,0.5524807648,-0.1242373186,-0.8821672028,0.5721610548,-0.0991927253,0.1468431,-0.5193256638,0.6479480124,-0.124961638,0.726444512,-0.319841091,0.7817368909,0.9287621381,-0.4919617749,-0.1352086566,-0.4409520614,-0.5360316192,0.5997576717,-0.1506139926,-0.5780670493,-0.6344683903,-0.8682379264,0.9698854073,1.7799482692,-0.9009778701,0.3675991811,0.1765368931,0.6201726574,0.8951854431,0.3414026746,-0.9581864422,-0.5424321216,0.6359005637,-0.7027054234,-0.7214298313,0.5144596818,0.757535877,-0.4028468935,0.979477901,-0.719359912,0.9240294186
   -0.9255370041,0.2111648203,-0.4517009579,0.5443339607,0.7609279108,-0.197298069,0.0044624103,0.7166093111,1.156825757,-1.517224234,-0.3190902918,-0.5759613455,-0.9212830384,-0.7914825802,-0.8765973751,0.7659641673,-0.2439017016,1.5246775735,-0.9918069323,-0.7887262243,-0.6307994997,-0.1950358064,1.0396473857,0.4193321948,-0.8346757806,0.0932401485,-0.4278269185,-0.0887356614,0.307234677,-0.7956466184,0.1502001517,0.509486692,-0.8175758975,0.3893847929,0.790604653,-0.21921599,-0.8690682477,-0.1571902265,0.1420666886,0.5465100564,-0.6120159104,-0.6166991702,-1.8026146287,0.9506670258,-0.675114318,-1.0009740835,-0.5262035785,-0.4565026057,1.261533663,-0.407533884,-0.5344682078,-0.1953518604,0.8145746789,-0.9912821847,0.7985791869,1.2873367039,-1.1356289764,0.2873524615,0.2079858715,0.3082035381,0.1167832075,0.8373294974,0.5967379678,1.5241943343,-0.0651165961,0.1231361771,-0.3568738673,-0.9182582267,-0.2092166958,-0.163665628,0.5384986327,0.0401591532,-0.2782035037,0.5661636447,1.3715725616,0.6443313111,-0.6504432409,0.4046239972,-0.8972881446,0.5679180563,-0.4659846918,0.8185979006,-0.5919152989,0.5420031502,0.7257973677,-0.7329508277,-0.0819681891,0.3373697066,0.788793368,-0.0433514345,0.3247092499,0.7850409214,-0.5285884079,-0.7838743022,-0.8042381489,-0.5702728261,0.2231333543,0.3011710714,0.5496630662,-0.0332375812,-0.9094023229,0.9212579175,1.0256523935,1.0893878923,0.7121324697,-0.8662369058,-0.9385474146,0.4520281785,-0.1925193798,0.3609723364,1.3207499389,-0.5274113172,0.6511971052,0.0717850883,-1.453669326,1.1691788258,0.5196133615,0.387242604,0.4182536498,-0.3469916027,-0.5859513913,-0.5823583547,0.3107717565,1.0336738121,-0.3647427311,-0.6139581825,-1.1234586963,0.1053377084,-0.764614482,-0.512104817,-0.9746611809,0.1443828653,-0.6781812637,0.3497303289,-0.3922407848,0.1623645071,0.1946991653,-1.1398871148,0.7359676748,-0.5945824425,-0.2438399304,-0.1900778208,0.9613147532,1.3750245923,0.4132704373,-0.9778250637,0.2487654557,0.320220664,-0.3642124044,-0.6641763988,0.091240967,0.143499467,-0.3622591882,-0.4997042277,-0.0150603105,-0.6600140802,-0.6132359555,-0.1333849091,0.0054668714,-0.1164085416,-0.0242223452,0.3037740785,0.6506702585,0.0716943928,0.9167725173,0.2064158397,-0.9112146022,-0.0370270773,-0.8140659679,0.7869128413,0.4715374025,0.0862710096,1.1132015599,0.7070491781,0.6172942413,0.516650764,0.6736618866,-0.1806373119,0.3131634492,0.6184007711,0.9503521568,0.1786317718,0.1553225761,-0.58484263,0.6547932863,0.3728320262,-0.5735099801,-0.7576225452,-0.5108620097,-0.3821238186,0.5833640295,1.486399256,0.9224162431,1.2128665205,-0.5892288252,0.0212502075,-0.992811223,-0.6167470776,0.3739761719,0.0938539489,0.9269753525,0.355412631,-0.5723062878,0.006619521,0.3916701118,0.3083172062,-0.4382118992,-0.142473745,0.7805867913,-0.0488876938,-0.0598549796,0.937236509,0.5490639165,0.4742068015,-0.1798168595,-0.8521660149,0.0418937046,-0.848270435,1.2531977903,-0.1773126055,-0.8657111138,-0.2339834174,0.4134327059,0.5274077655,0.7840185566,0.9910520159,0.9082958082,1.0057288002,-0.3310193786,-0.4915051222,-0.0751766076,-0.0958938965,0.2041492408,-0.041930507,0.4151821664,0.0430294438,0.6877717792,-0.5530297674,-0.6367256348,0.5304544838,-0.6724573611,0.1696900971,-0.0087596829,0.4395246603,-0.2015556562,-1.5038068718,-0.0593208773,-0.1850598474,-0.0456033843,0.5436181604,-0.7586550299,0.4500322684,-0.1915526182,0.3629893638,0.3812610537,0.6912633415,0.7625746124,0.734900293,-0.200192908,-0.0193718912,-0.3773086868,-0.3476714123,-0.6749247616,0.5065707137,-1.4370487391,0.5077355727,1.1205216485,0.4673889599,0.8945699927,0.8138132026,0.1755594165,0.0258307979,0.891568505,0.8355307607,0.6838258474,0.2875940403,-0.1589916209,-0.7206000668,0.207472085,-0.8245376486,-0.3970408799,-0.2574403938,0.5247278851,0.0382664807,0.4058604318,-0.1372549908,0.6539206925,-0.4676583953,-0.7227548163,-0.1822027962,1.0705714748,0.9857054684,-0.1674153184,0.2472123358,0.4936643908,0.8447005175,0.6024456205,0.1952338322,-0.3970898623,0.3926720818,-0.0188742103,-0.3207483254,0.6236151043,0.4085689516,-0.7816673146,0.3858896907,-1.0243116655,-0.2967331321,-1.0250553654,0.2306527815,-0.3556307916,-0.680830246,0.682071079,0.7152258347,0.1477083838,-0.3554956252,-0.5251023279,0.1751589917,-0.8119078611,0.6137961016,-0.8233561673,-0.2625040073,-0.6488444966,-0.9163025159,-0.888694231,-0.6335370789,-0.0175756894,-0.7954139895,0.4452618189,-0.1448944718,-0.3101099363,0.9349491672,-0.7215030825,0.2119305421,0.5982500461,1.0328345533,0.2776106699,-0.1779436091,0.7338421227,-0.7706587795,-0.4721772476,-0.8881876045,1.0848741474,0.2706982917,-0.0123807299,0.5966113735,0.221607378,0.9145381788,0.8850136982,0.6311249228,0.2109134949,1.1526018739,0.2747808477,-0.7631145344,0.0064535549,0.0647825293,0.6747052349,0.1483419592,1.0139339536,-0.1558979585,-0.9373394929,0.1671593189,0.9749446552,-0.0644879687,0.4223955749,-0.5522361634,0.1659054605,-0.2084804832,0.4664068559,0.4327110687,-0.0515581623,-0.6435175297,-0.4861681848,0.2322720625,0.5889630918,0.4823688968,-0.4593611112,0.5464241829,-0.5433813784,0.740771562,0.058077091,1.0445468964,-0.4654156742,-0.3250136782,0.557032701,0.0248824387,0.4023200803,0.0017494548,-0.0982974338,0.3677835313,0.0282627142,0.8116734628,0.5837262132,0.34492844,0.4942005639,-0.5341838661,0.6322770178,-0.4791753811,-1.186717575,-0.4864383274,-1.4706186711,-1.9421306898,-0.0717268166,0.301210858,0.943871599,-0.4749052893,0.4939937505,-0.3889319868,-0.0074174234,0.0259163802,-0.0384010217,-1.2932236243,-0.9560307339,-1.0201464273,-0.0892559627,-0.5641534714,1.0565102023,0.7436698888,-1.0535769209,0.4699585239,0.1733378586,-0.5260167756,-1.1365919289,-1.0804027479,-0.6968841151,0.988974575,0.1899853428,-0.587054447,0.9953075209,-0.7048548493,0.1563025195,0.3194441004,-0.4239059557,-0.6176988682,-0.6641936299,-0.2587388766,0.6447526113,0.6271810485,-0.1601246922,-0.7492446994,0.8081500429,0.1198793956,0.964027136,0.6429343451,-0.891071999,0.0395338272,-0.0380632818,0.7745063896,-0.747021421,-0.0890868599,-0.6029751062,-1.3638356514,-0.2926532102,0.3948796489,-0.6676107922,-1.9083937913,-0.245796405,-1.7418945501,-1.555875685,-1.2113467191,-0.3948857839,-1.2568901027,-1.284671531,-0.7820288084,-0.4108043371,-0.8105539409,-0.1876759685,0.2466055702,-0.7746224917,0.3831015721,0.6000519631,-0.1503394679,0.1995390221,-1.2838944631,-0.3790804542,-0.8567185828,0.6681067511,-0.6415782611,0.4081451035,0.5135993246,0.4218075428,-0.7363678078,0.3489572153,0.7147879812,0.8124643068,-0.8201809467,-0.4639533091,-0.4602890433,-0.1800152776,-0.3937289276,-0.1755172622,0.7566363175,-0.3916437371,0.6483589058,0.1101799413,0.9969957713,0.6903797901,0.5319928592,1.0648355735,-0.5098864267,0.0441932693,0.0395411864,0.8182151346,-0.2932476703,0.3789644765,-1.3858085093,0.9785352931,1.2038848958,-0.3977210887,-0.0849839192,-0.8267376065,0.6892282353,0.3600275645,0.1494615799,-0.959757477,0.290240235,-0.0747891928,0.7794727738,0.2547070942,-1.0335861538,-0.048824009,-0.5860592317,-0.8233753998,-1.401029339,-0.9785538881,0.0707483438,0.897102879,-0.6857938982,0.6995164358,0.4990344866,-0.632522369,0.1329571369,-0.6919213452,-0.7395432659,0.5253792258,0.6449667747,0.5666693,-0.505693188,-0.1208625273,0.2279307312,-0.8118471856,-0.5874807728,-0.3779982424,0.196645606,0.6835047228,-0.0584505854,0.7311518169,0.5015058817,0.3919586543,-0.1517930663,-0.9490883125,-0.3043500012,-0.5136259506,-1.2247321828,0.4411621066,0.8049062121,-1.9356325405,-0.4890137938,-0.284472509,-0.3133469804,0.0005643071,-0.0519747548,-0.6840779874,0.5181352117,-2.0079232576,-0.2061992501,-1.9410311354,0.8954294393,-0.8795951489,-0.184137787,-0.8941195963,-0.7009216145,0.9878599386,-0.4239432495,0.893941795,-0.7089032334,0.9073081896,-0.0649783627,0.4547556289,-0.110120758,-0.3034758418,-0.2226531896,-0.2393448109,0.4798009838,0.3239094096,0.7820911976,-0.86513712,0.0915374325,-0.7790671261,0.3390090621,-0.0582641155,0.0029157825,-0.7800958615,0.0746758646,0.3367423995,-0.7143293332,0.6851541082,-0.0204585075,-0.6246210349,0.0035437637,0.0937433803,-0.3089562403,-0.9341747713,0.139756059,0.5596383683,-1.0478262903,-0.7074523854,-0.0156618587,-0.0283897137,0.4333981316,0.496298107,0.183241817,-0.4311985102,0.4224232536,-0.1091596125,0.7272740827,-0.7142814284,0.2683685221,-0.3585200014,-1.1107086516,2.9234961519,0.4682136124,0.3737871216,0.2032365559,-0.4488210917,-0.6287172317,-1.4015817433,-1.3083258436,0.2141778597,-0.2765710432,-0.2500103818,0.2634030301,-0.1332583205,-1.2860710928,-0.1457847952,0.6957805702,0.765656374,0.9754788095,1.1002893186,-0.9364575553,0.4283635909,-0.2584002794,0.3812245972,-0.5209093052,0.2080541098,-1.076953522,-0.969782279,-0.5543409802,0.0960589975,0.4702876809,-0.9453833277,0.6206281506,-0.7970135484,-0.2219929534,-1.3092922378,0.5466732221,0.0048150839,0.8526546317,-0.1580684587,-1.1032303597,-1.0151595448,-0.1456125815,-0.4116306026,0.304130442,-0.6387146227,0.5541630649,-0.6554945863,0.5289096976,-0.6429670975,-0.283300725,0.3684056005,-0.6148338503,0.7772456297,-0.7886016524,0.1898371334,0.7018981536,-0.3688124771,-0.9562205541,0.9943817629,0.3101979061,-0.336369387,0.005418893,0.4853794406,0.0520467596,-0.8542844921,-0.7565337686,0.5694873816,0.3738831928,0.6736450219,-0.555271448,-0.5276276589,-0.0852973589,0.2312590294,-0.3180057343,0.4039575839,-0.6293299648,0.1933328961,-0.8805526728,-0.0804652573,0.497876517,-0.5939041138,0.4021140991,-0.3512515113,-1.0104760462,1.2394957649,-0.9061668779,-0.3318181243,-0.6892806492,0.5220533433,-0.6070842624,-0.2816902776,0.4413608031,0.1957165818,0.2641361131,0.8024115768,-0.9169922413,-0.6584453775,0.0031704856,0.7296450463,-0.909626464,-0.0635959585,0.3631265578,1.121729618,-0.3904273275,-0.0923250798,0.6876867313,-0.1922849531,1.1083015881,1.3969643938,-0.3017576244,0.9265060798,0.172573818,-1.026579782,-0.467717475,0.0248369876,-0.1408795621,0.8527991034,-0.7172704408,-0.5773889396,-0.4928921465,0.6359366728,0.1073932829,-0.0538728043,-1.2838220009,0.4964957752,0.2735932572,0.4602424655,0.3078342965,0.8409014396,-1.2695200088,0.134471766,0.7617774882,-0.3795694389,-0.9552939823,-1.336536512,-0.2404410475,-0.4181723468,0.4266420298,-0.2715590278,0.0685234374,-0.5542255264,-0.747866391,0.2621249131,-1.0399205219,-0.3085816992,-0.372947398,0.2424358611,-1.1841842699,-0.3998731718,-1.4527135501,0.443796739,-0.1699241962,-0.4766800162,-1.1127236412,0.0934754768,-0.221017905,-0.790920638,0.3911914498,-0.0067913137,-0.9670010162,-0.3923400311,-0.0323729908,0.4988126774,-0.0613970768,0.3796700438,-1.149786618,-0.7030329858,-0.5088603353,0.8392877802,-1.1082843774,0.2711996901,-0.6859266234,0.1757617703,-0.7430109157,-1.2355531259,-0.4218957844,-1.1790648938,0.3546048567,-0.3532534921,-0.0124633512,0.4054577951,0.0940589128,-1.0659828385,-0.2611932035,-0.2256950155,-0.1977315882,0.423661036,0.155248446,-0.8606398637,-0.4678709561,0.6343121004,0.3745607239,-0.5163636012,-0.9376485931,-0.6848184499,0.1354515014,-0.5340522012,0.4095842533,0.0729515042,-0.0332769366,0.1598027634,0.1975829648,-0.8609328239,0.0281563715,-0.7716057213,-0.2098590179,0.4664684901,0.1546568046,-0.8113618694,-0.6338678917,0.1552373968,-0.82860083,0.0175797896,-0.3562856895,-0.0894397671,-0.6304224819,-0.1936041702,-1.0817908989,-0.4050653644,-0.5482830774,-1.1037822583,0.6508165551,-1.1339138772,-0.908075654,-0.3012713741,-1.4879965162,-1.4305465026,0.6425560719,0.8239830548,0.1390874637,0.2224106501,-0.4682832166,-1.0167064902,0.1400727212,-0.0872252008,-0.7127714281,-0.5866244784,0.4390033279,0.0701530756,-0.3308600928,-0.4643253062,-0.7397388599,0.4338692309,0.6709960052,-1.2120094275,-0.7645302824,-0.2435465819,0.3388844524,-0.0752833357,0.3567821755,-0.5360313724,-0.4887793655,-1.2708723779,-0.4453875587,-0.6543264,-1.3241823467,0.4494387391,-1.4105422546,-0.4975245276,-0.3775305238,-0.0821782459,0.16361655,-0.6331501179,-0.6007293809,0.1145524418,-0.866546776,-1.1832113901,-0.885902252,-0.7613891659,-0.9473734185,-0.5790092877,-0.3409494687,0.4525658241,0.0128797187,0.5077888205,0.634400931,-0.881650826,-0.449048166,0.6047026958,0.4999730269,0.6323226086,-0.1726529263,-0.6188544134,0.5706274178,0.9078397907,0.8281263663,-0.4304961117,-0.4394309925,0.7701117214,-0.4212272964,0.9313489891,-0.1437276842,-0.1930495035,-0.9222853155,-0.0092889514,0.4919767723,0.8278350795,0.5824510798,-0.1568396413,0.1749126219,-1.3075004147,0.2161028836,0.6350459611,1.4985047069,0.2029425225,0.5298024161,-0.1983293031,1.2363044316,-0.413453474,0.2930584796,0.5035005148,0.1953107488,-0.371411141,1.3675626026,-0.1439260901,-0.7837798251,-1.0868470588,-1.3572047254,-0.1062010615,-0.2796968957,0.2248380131,-0.3142053742,-0.5672073493,0.614231034,-1.2931302193,0.3046239662,-0.3794789563,0.5370554965,0.5170058483,-1.1434561977,-1.1043280438,0.1601492431,-0.6388982502,-0.6246278497,-0.4319698391,-0.8578193496,-0.8205677994,0.2909647624,0.987633146,0.4260290287,1.4065555618,0.2470904474,0.760066162,-0.6419825602,0.620566425,0.0537598182,-0.4722200748,0.8211072868,-0.679655069,-0.7382983184,-0.2974747752,-0.2965790628,0.2842342196,0.6858181491,0.7366656625,0.610149257,-0.3141101679,-0.4337564736,0.1641284332,0.2966289788,-0.1430022932,-0.888107384,0.2623161013,0.4625393002,-0.3133405249,0.7226619983,-0.1530270247,0.422781935,0.718425279,-0.261729281,0.7787323559,0.7986704124,-0.279427426,0.4410762459,0.1349405208,0.4872853839,0.0909424628,-0.193916196,0.3552755561,-0.2242238112,1.0146756949,0.5870403098,0.0534445272,-0.4622548904,0.6745644887,0.1943392583,-0.0176562262,0.6033239877,0.1260034664,1.0008148802,0.2223922571,0.2586684688,0.6773359122,1.0222262708,-0.3346656703,0.2441621281,-0.8102141312,0.3793548549,0.6289668896,-0.9635295558,0.9853914535,0.9093636061,-0.5204470657,0.9825585288,-0.8938227682,-0.0288123888,0.6927721745,0.2508415172,0.0264223879,-0.480324348,-0.3371790796,0.4550761319,-0.2767617054,-0.132435298,0.3283508568,-0.9992234107,0.0134257906,-0.6468630044,-0.1273844647,-0.3538178173,-0.179464002,1.5843609571,0.5595623682,-0.5631515257,0.3923446701,-0.9269692818,-0.73453468,-0.4593071581,0.1059606295,-0.8462593362,-0.2433400335,0.9262706123,-0.8962321326,0.9262164542,-0.6526675193,0.5060282451,0.2166550471,0.268459604,-1.2008141622,0.2241905245,-0.3751703223,0.2797159116,-0.8092991101,-0.733215156,-0.439592481,-0.6565679871,0.2379124792,-0.3115241133,-0.8958517095,-0.9511803577,-0.6121002075,0.199283347,-0.9030993018,-0.8126325294,-0.2076783916,-0.4072078928,0.2226749108,-0.9033708673,0.192274947,0.6755912096,-0.5483953309,0.994469324,-0.0858766539,-0.6619715543,0.4069772933,0.9033985761,-0.2784510792,0.1951898896,-0.1511143447,-0.0205377727,-0.7098889612,0.616478415,0.4275773553,-0.5110475646,0.8532578338,-0.935958729,-0.9418720519,0.1213944207,-0.4564272802,-0.6421902621,-0.7262370186,-1.3166144701,-0.6803685163,-0.6377924637,0.3308613118,-1.1757599421,-0.8455351904,-0.6383459784,-0.7225579344,0.6518756865,0.6277343295,-0.1178796138,0.2647260527,0.8325097736,0.0835464068,-0.4610548915,0.6154116489,0.4994890251,0.0114438876,-0.6983112848,0.4778025067,-0.1336261338,-0.6270979599,-0.2242436794,0.8737891658,0.4056478326,0.9974411196,1.2054390216,0.4582867094,0.5040592757,-0.2812571706,0.0474537838,0.9640171397,0.5202196361,1.347651086,0.713686025,0.3373076572,0.7842065199,-0.03104924,-0.0562982521,0.0367208877,0.606369875,-0.375314663,0.1763722918,-0.3863908716,0.7276430445,-0.7292424058,-0.45035988,0.5125051817,-0.4576191128,0.7042804452,-0.8809043745,0.9895845589,0.9107881784,-0.9038571177,-0.4920271398,-0.8203840337,-1.6380849505,-1.3074607086,-0.3575513349,0.706740545,0.3002407655,-0.3334683125,0.6928848267,0.7808918467,-0.8509733534,0.0783217419,0.6214722491,-0.1122162265,-0.0495551903,0.4947680598,-0.3520852035,0.8582359727,-0.0686505039,0.0526972995,-1.9230653348,0.2843860197,-0.9589255519,0.1344302254,-0.1346273283,0.8026984314,0.0891699032,0.8313495174,0.6791785325,-0.0283798769,0.4979957074,0.8514622134,-1.068488475,-0.0094755088,-0.4963848706,0.6642927926,0.2511727191,0.893592584,0.4893050551,0.5592039296,0.0048676209,-0.5944113589,1.079422337,0.2067440517,0.5311317292,0.4757335376,-0.3876769012,-0.9103615407,0.1597858538,1.0185890303,-0.3309497874,-0.8331504293,-0.7164359886,-0.0572694497,1.2091624955,-0.6558040802,0.9362374751,-0.824780315,-0.1421269659,-0.5916239475,-0.2260818816,-0.7647082265,0.6723278545,0.0588113699,0.7145028972,1.1297377737,-0.7145938746,0.2452369282,1.0112473986,1.1014711394,0.0349037768,-0.3831201441,0.5434779005,1.170781737,-0.6222445173,1.0839591602,0.6448114573,-0.1586164857,0.8357466118,0.5751639686,1.3329910476,-0.0433870349,0.1251582065,0.3227494848,0.4334335374,-0.0542315528,0.5796372727,-0.2311772525,0.2438455962,1.4169746616,0.9023655996,-0.5550868303,-0.0976427941,-0.6964987559,1.5243771784,0.2206630922,0.2149265948,-0.1632693174,1.2749637195,-0.0203711394,0.1045303183,-0.2880109118,1.2320564751,1.2298201785,-0.5774156823,-0.2205265616,0.2323801271,0.9188731639,0.5895191987,0.5797595783,0.9241272253,-0.1770824505,0.5332018628,0.2762575862,0.2603888122,-0.5050234822,0.5202511966,-0.2927945801,0.402170798,0.308086611,0.1239740388,0.3717864439,0.6337803529,1.0310368764,-0.4897719835,0.5543321765,-0.7037989018,-0.3153101432,0.5285453166,-0.8036717296,-0.5292883929,-0.008223377,1.080703285,-0.1709073937,0.174058781,-0.6892157178,1.029472205,0.031419905,1.3679645626,1.4461245969,1.1939458589,0.8274974091,0.6814635495,0.9248647652,0.4116376893,1.0626916226,-0.1296038139,0.2390632982,-0.6842650128,0.7303480627,0.336997952,0.3467491914,-0.7094505355,-0.2015753532,0.3817091175,0.8632119592,1.317167965,0.1838469681,0.3363660318,0.0210229316,1.022393252,0.2611968913,1.3714097651,1.1442058751,0.7303744373,0.9114948856,0.5849618484,-0.1736318697,1.1649386663,1.1353671291,-0.1388222291,0.3718481666,-0.7820136293,-0.4003465174,0.1014646504,0.9368248887,1.0588046874,0.4761266101,0.208712685,-0.6315523095,-0.5227930857,-0.4336999947,0.2318033053,0.0718229332,0.9622866104,0.7435271308,0.1728873243,1.0686413506,-0.8493308218,0.248958201,0.664197378,-0.1830711359,-0.5354933297,-1.0828682487,-0.2019436666,-0.1788196761,-0.3725363849,0.1311976704,0.4228288773,-0.5974591394,0.2599951959,0.9164203978,-1.2333397068,-1.4121484443,-0.7470815919,-0.120401918,-0.4276274413,-0.4285915115,-1.0166125837,-1.1288259135,-1.4600048686,-0.4942027767,-1.0460432645,-1.7256182002,-0.6100663086,-0.1475601775,1.1001987775,0.3032689212,1.6734008757,-0.9136179348,0.8526669054,0.3980164938,-0.2659751676,0.1809937659,1.0188520986,0.4881249713,-0.0127453028,-0.1178842456,0.8427172982,-0.2087551894,0.9159175357,-0.4638711085,0.0912135749,0.751725516,-0.0474479488,-0.1641955347,-0.6116962651,0.1129114272,0.1359823757,0.8519447235,-0.8124559512,0.5596352253,0.2737202006,-0.2422469893,0.9963864613,0.8906074192,-0.1194567231,0.5851570099,0.5903999211,0.435884232,-1.0067207217,-0.3440089391,0.0570738375,0.6677260202,-0.617884494,0.4889205896,0.635390583,-0.3757173407,-0.3240355279,0.6901605985,-0.03506612,-0.3436066827,0.8741901888,0.959909807,0.9321469192,0.0096089787,-0.0501777823,1.2134749067,0.1683373201,0.0492952147,-0.1489568386,1.2981594255,-0.0870073743,-0.3786832518,-0.2509822641,1.3220769932,-0.938127684,1.5754757377,-0.7914932549,0.1430359026,0.4426414631,1.4544184956,0.9762916302,1.3329126308,0.4808776437,-0.1782262725,0.5037697285,0.1103360977,-0.0793262182,0.2979001177,-0.0903529452,-0.2285348184,0.1575502308,-0.2129152187,0.2945412313,-0.4530313984,-0.8688490189,-0.4464969507,-0.5550424994,0.1146049541,0.7861189636,0.7008426092,-0.2157593164,0.7229610498,0.4569671346,0.0420703227,-0.5190617612,-0.5586071177,0.9774579084,-0.5471356588,-0.1374686896,0.9064665064,0.9819331425,0.9072231745,-0.4028808485,1.0330687164,-0.1498084287,0.5749067483,1.1444107672,-0.5448806083,-0.6645900318,-0.3454055198,0.7886777505,1.0018584994,0.3049347834,-0.1483859441,-0.1052043788,0.03630884,-0.0201762724,-0.7647148603,0.6818282548,-0.7876837411,-0.4294899837,0.1920936559,-0.5081942368,0.1638435404,0.620753723,0.8349608113,0.3969565174,-0.150517495,0.0740072481,-0.5387008558,0.6082925108,-0.3673430009,0.9531653861,-0.0814697832,0.9230165107,0.279778615,0.4048722918,1.0054426492,0.7853834148,0.3618416132,-0.8654598786,0.715868828,-0.130200265,0.8850266575,0.1467279715,0.2537466862,-0.3613539503,0.4350244286,0.2807621629,0.9888541351,0.6611563616,-0.1323685424,1.0739833879,1.0235774295,0.8056914128,-0.6019538604,0.6376514444,-0.0362223307,1.5384136045,-0.1677492482,0.697789028,-0.4395599425,0.6588446345,-0.5928395416,-0.3197313371,-0.3032994699,-0.0631224698,0.3168628092,0.3718497134,-0.6724817575,-0.4228968107,0.2429476232,-0.5211415648,0.7829445756,-0.5740485304,-0.9413741378,0.133668665,0.0103270209,-0.6141766422,0.3222944708,-0.4782435916,-0.0464236873,0.1511679162,0.046063331,0.6079377213,-0.9360487517,-0.3400675893,-0.8244239034,0.4892761247,0.7072161792,-1.0558783058,0.5396129894,0.6539598827,-0.2076763291,0.2648721051,-0.7995909191,-0.3916146681,0.5533411319,-0.6846564587,-1.143896763,-0.7996795268,-0.246721898,0.0613169516,-0.7374462832,-1.4650473555,-1.0439597604,-1.3423394019,0.5806418566,0.538133648,0.0555199591,0.8905361303,-0.2248075617,-0.2621422681,0.0891030221,0.5059328467,0.7989799043,-0.572114666,0.0363466301,0.1900962722,-0.5018903446,-0.5293705831,0.4145520265,0.9883393524,-0.1293404119,-0.4255580982,-0.40446735,-0.3469464286,-0.3717406493,0.1001277357,0.8998940037,0.5975278539,0.4127105208,0.6386067501,0.1702246192,1.2570599323,0.5183787622,-0.2567900814,-0.9806050962,-0.1460998133,-1.1818246237,-0.9486846062,0.1168235855,0.718881785,-0.6814633581,0.0451415556,-0.8426131181,-0.0246131502,0.0500671013,-0.0440143194,0.9849205553,0.1380215937,0.827670256,-0.0040821735,-0.2390605372,0.3822790978,0.8604062159,-0.0214238709,0.0108497165,0.9734955309,0.4320919023,-0.0114840588,0.6298614771,-0.0891727938,-0.0774909558,0.9060989564,0.4880940676,-0.7525841429,0.5221938365,0.6165733207,-0.4496571419,0.2609464204,-0.045176152,-0.9461842003,0.4489111862,0.0070751156,-0.3934434989,0.2726846988,-0.965708381,-0.5361991905,-0.5176195228,-0.748577611,0.5533135995,0.9991084248,0.6781504077,-0.4603810761,-0.93757922,-0.0812754847,0.7706011601,-0.2199971063,0.5913241335,-0.3347124631,-0.8319461068,0.8505849313,-0.8227838384,-0.0041352819,0.8988169066,0.0042187232,0.7148301358,0.5182779336,-0.3365307684,0.8420838164,0.6226580222,0.1690799528,-0.1158873628,-0.6849137694,0.8611545587,-1.0021052229,-0.467404862,0.0045499656,0.4865213391,0.0682436392,-0.0673224164,0.2015285348,-0.4845310067,-0.284480344,0.3583830597,-0.1287773823,-0.5356241933,-0.899279162,-0.0652981123,0.1271036303,-0.0270672334,-0.1185544116,0.1110567419,0.1609092265,0.6997164448,-0.4120465386,-0.4309156614,-0.7468293966,0.5026862909,0.1792416237,0.5097214682,-0.3028611613,-0.5224773798,-0.8447752113,0.2034378147,-0.9158817948,0.073757329,-0.2385328542,-0.7010755698,0.7778890691,0.5164745587,0.405032943,-0.7690113276,0.6274807577,0.6053558042,-0.2040288397,0.159060211,-0.1093038067,-0.3292635098,-0.1855630553,0.7052416221,0.9555732578,-0.7564844024,0.4538120824,0.5544842064,-0.3308967817,0.7720083832,-0.177210846,0.1518502937,0.2141511562,-0.2035596186,-0.6519175531,0.9548184393,0.3562730199,0.1125275064,0.379712438,-0.4029112541,0.1952760156,0.3772972652,0.5965381507,0.0652842784,-0.1929382112,-1.3932338666,-0.084666123,0.3053210388,-0.0535756263,0.8041027425,-0.7580200908,-0.5117381943,-0.2356865693,0.2623580069,-0.3630893821,0.2318477386,-0.5954814359,0.3179115746,0.8130739192,0.0856004013,0.2597172611,0.3579514356,0.8350723375,1.0571941615,0.6920659925,-1.5578517501,-0.4589995257,-0.1489699609,0.371824344,-0.3661763205,0.3646534764,-0.3212682994,0.6292582515,-0.2635780898,0.3970059704,0.3799902688,0.5536038299,0.0648300196,0.0470409215,-0.3322813822,-0.4848367309,0.1509478115,-1.023038635,-0.0962544769,-0.9066059394,-0.7528354542,-0.3930816902,0.239258943,0.4516387034,-0.4880106644,-0.8883174835,-0.0710478352,-0.1331865668,0.8979980763,-1.0608702693,-0.9992969835,-0.6933925072,-0.0950364406,-0.2299035084,0.091922596,-0.8492240674,0.5967283357,-0.6184053612,0.1836252339,0.5373776825,0.3563032834,0.4080307122,-0.5049188996,0.76365778,-0.4118487062,0.2903798515,0.2428207115,-0.47954691,-0.6061140529,0.7049451979,0.4928468149,0.7074411491,1.7202154028,0.0022211948,-0.1513346416,0.6100218653,0.9720865188,0.4328048811,0.5407230525,0.4306204133,-0.1921536601,-0.5384839182,0.4984985196,0.5826858596,0.2672373146,5.451602927,-0.7739219946,-0.1782759174,0.8652860834,0.9504138082,-0.5480788845,-0.7805351425,0.0931511647,-0.177432074,-0.4405557668,0.9418807226,0.2573552456,0.3195129412,-0.7390585003,0.8735231813,-2.2975050638,0.7928177274,0.3886340277,0.1510054421,0.8010097968,0.4894070145,0.3847683748,-0.1792947529,-0.3063497424,0.7541192314,0.788564322,0.0939590884,0.6794260944,0.0331819395,0.3355468425,-0.4181120029,0.5623203632,0.2214375118,-5.7044723875,-0.2511776873,-0.352267076,0.9189873131,-0.6557905908,0.7763193385,-0.7252819647,-0.1159165428,0.0324727468,-0.0220034527,-0.839738,0.863316094,0.5337557712,0.0451277946,-1.0038120928,-0.1212870315,0.1377281022,-0.3064088595,-0.1376724823,-0.3950619975,-1.3212408776,-0.6330586443,0.1101614866,0.1614664276,-0.2632942485,-1.3435725373,-0.5973874222,-0.8147052995,-0.7612079504,-0.5118969744,-0.1937961793,-0.2739521549,-0.8161776744,0.1551529999,0.016464201,-0.8186307727,0.2337461356,0.0540045067,0.9375180615,-0.7661644448,0.7703640459,-0.2283663341,-0.7578985588,-0.5268452687,7.6606925422,1.035751441,-0.37463531,-0.9755563836,-0.6370197035,0.2869462112,1.0748415961,-0.9055246618,0.5508756957,1.1973477074,0.4535696183,0.2212588441,0.5059032258,0.3600685175,1.6123574568,-0.1128977626,-0.5935085453,0.8303992817,0.915439471,0.1102249811,-0.0920008284,0.2438002464,-0.5099848006,0.2667557697,-1.0247896421,1.261654738,-0.1192710369,-0.8551209777,0.4314474837,0.5340442355,0.8129149196,-0.3155864207,0.7451681243,0.4510815109,-0.5398006127,-0.3843430588,-0.823353377,0.321331896,0.7868154858,-0.9684001266,-1.5711576403,-0.3196533744,-0.9796712398,0.8935071035,-0.5110296104,0.5526497865,-1.1073511553,-1.0332451048,0.2107926582,0.0056325465,-0.7250154921,-1.0648199454,-0.993018328,-0.595970988,-1.2335415041,-0.9824698582,-0.2936462994,0.1313246804,-0.8848693917,-0.6871171395,-0.8754166298,-0.9622880087,-0.9845606209,-0.0270297716,-0.2619028364,-2.4651654668,0.1315626119,-0.5751959515,-0.5148689857,-2.9623082914,-0.7046391599,-0.021694099,-0.1380297022,-0.6527649601,0.0477952177,0.4752559809,-0.5191246177,0.8096941447,-0.8875595512,0.1845264337,0.3256777858,-0.7703490848,0.3141290467,0.2531120506,-0.0039456551,0.4870064767,0.144997038,0.869262802,-0.6440682472,0.9246220322,1.5391349714,0.8898732438,-0.1432705518,-0.0241261442,-0.293226467,1.0369685434,0.6832868718,0.0290139793,1.1938453821,1.0892056401,1.173368115,0.6625498677,-0.7308009691,0.0191484674,-2.4807435971,-1.7439675526,-0.816311794,0.3874411193,-0.7893274845,0.2502660948,-0.1478381268,0.3658480293,-0.4350114784,-0.5285727045,-0.7759707488,0.659557782,0.6600451089,-0.7546896515,0.2938022603,0.808956586,-0.8619349385,0.7471281138,-0.6549802232,0.1311103199,0.8987048284,-0.2245808026,-0.2044580443,0.8978908131,-0.4318100754,-0.8414071774,0.6426464004,0.1636126272,0.7495153303,1.3832939791,0.5638464906,1.2067992129,1.0539622447,0.0482310244,3.3813481684,0.8042268761,0.8072357958,16.1317028898,2.390851857,0.6264284584,0.3213201879,-0.304814128
